
\data\
ngram 1=3966
ngram 2=14290
ngram 3=18721
ngram 4=18803

\1-grams:
-3.871109	!	-0.4027443
-2.791928	"	-0.1297251
-4.34823	")	-0.2781136
-4.34823	"?	-0.2781136
-4.34823	%	-0.2781136
-3.503132	'	-0.09642277
-4.34823	'am	-0.3002501
-3.64926	'an	-0.08083628
-4.34823	'anic	-0.3010105
-3.871109	'clock	-0.8367398
-3.871109	'fat	-0.1626197
-3.64926	'll	-0.1243345
-3.64926	'm	-0.124549
-4.34823	'minuun	-0.3003282
-4.0472	're	-0.6009874
-2.74617	's	0.005710777
-2.306838	't	-0.3752133
-3.570079	've	-0.1079742
-2.577378	(	-0.1078421
-4.34823	("	-0.3008936
-2.607868	)	-0.2894682
-3.74617	),	-0.1321136
-1.537998	,	-0.8096675
-3.871109	-	-0.1665001
-4.34823	-Praise	-0.3004647
-4.34823	-Really	-0.288261
-4.34823	-You	-0.3009326
-2.74617	.	-0.337702
-3.34823	..	-0.2305097
-2.933257	...	-0.3013751
-4.34823	0-0	-0.2781136
-3.74617	000	-0.1216276
-4.34823	1	-0.288261
-4.34823	1%	-0.2781136
-4.34823	10	-0.3010105
-4.0472	11th	-0.2062017
-4.34823	12-step	-0.300991
-4.34823	150	-0.288261
-4.34823	1647	-0.2781136
-4.34823	17	-0.300991
-4.34823	1896	-0.2781136
-4.34823	1918	-0.3004452
-4.34823	1928	-0.2781136
-4.0472	1936	-0.1870252
-4.34823	1979	-0.2989408
-4.34823	1980	-0.3010105
-4.34823	1991	-0.3010105
-4.34823	1995	-0.2781136
-4.34823	20	-0.3002501
-4.34823	2001	-0.2781136
-4.34823	2002	-0.2781136
-4.34823	2006	-0.3008741
-4.34823	20s	-0.3008936
-4.34823	2121	-0.3009715
-4.0472	24	-0.2207371
-4.34823	25	-0.288261
-4.34823	26%	-0.2875383
-4.34823	260	-0.300991
-4.34823	2nd	-0.3010105
-4.34823	30	-0.3008547
-4.34823	300	-0.3008547
-3.74617	4	-0.3350708
-4.34823	4-3	-0.298745
-4.34823	40s…bald	-0.288261
-4.0472	45	-0.5892911
-4.34823	50	-0.3009131
-4.34823	593	-0.3008547
-4.34823	6	-0.3008547
-4.34823	600	-0.288261
-4.34823	60s	-0.2903422
-4.34823	618	-0.3008547
-4.34823	66	-0.3009131
-4.34823	7	-0.288261
-4.34823	700	-0.288261
-4.34823	71	-0.3008547
-4.34823	86	-0.2999573
-4.34823	95	-0.3010105
-3.069477	:	-0.1477571
-3.005808	;	-0.2306318
-1.289046	</s>
-99	<s>	-1.373227
-1.470183	<unk>
-2.318847	?	-1.284912
-3.005808	A	-0.2444069
-4.34823	AD	-0.3007767
-4.34823	AI-Futuh	-0.3009326
-4.34823	AI-Gumruk	-0.2781136
-4.34823	AIDS	-0.288261
-4.34823	Abbas	-0.288261
-4.0472	Abbasid	-0.2216344
-4.34823	Abd	-0.3010105
-4.34823	Abdallah	-0.3010105
-4.34823	Abdu	-0.300991
-3.871109	About	-0.1684869
-3.871109	Abu	-0.1760328
-3.871109	According	-0.8338109
-4.34823	Activities	-0.2781136
-4.34823	Actually	-0.2998988
-4.34823	Adam	-0.288261
-4.34823	Adballa	-0.3009715
-4.34823	Aden	-0.2897429
-4.34823	Adhan	-0.288261
-4.34823	Adil	-0.288261
-4.34823	Affairs	-0.3010105
-4.0472	Afghanistan	-0.1854607
-4.34823	Africa	-0.2781136
-4.34823	African	-0.3010105
-3.306838	After	-0.3713936
-4.34823	Agency	-0.3010105
-4.34823	Ahli	-0.3009715
-3.871109	Ahmad	-0.1694571
-4.34823	Ahmadinejad	-0.2965463
-4.34823	Ahwaz	-0.2994298
-4.34823	Ajloun	-0.3009326
-4.34823	Al	-0.3002501
-4.34823	Al-Ahmad	-0.3010105
-4.34823	Al-Arish	-0.2781136
-4.34823	Al-Ban	-0.3009326
-4.34823	Al-Bayan	-0.3009326
-3.74617	Al-Din	-0.1295309
-4.34823	Al-Hariri	-0.3006012
-4.34823	Al-Jabir	-0.3010105
-4.34823	Al-Karnak	-0.288261
-4.34823	Al-Khalifa	-0.3007182
-4.34823	Al-Mahdi	-0.3009326
-4.34823	Al-Maliki	-0.3008352
-4.34823	Al-Manara	-0.3010105
-4.34823	Al-Marnini	-0.288261
-4.34823	Al-Mu	-0.3010105
-4.34823	Al-Sabah	-0.288261
-4.34823	Al-Tayi	-0.2781136
-4.34823	Al-Tur	-0.2980395
-4.34823	Al-Umma	-0.3009715
-4.34823	Al-Wahdat	-0.3009715
-4.34823	Al-Walid	-0.2903422
-4.34823	Alessandria	-0.2781136
-3.74617	Alexandria	-0.1299961
-4.34823	Algeria	-0.3008741
-4.0472	Ali	-0.2090597
-4.34823	All	-0.2759934
-4.34823	Allah	-0.3009131
-4.34823	Allies	-0.2781136
-4.34823	Alzheimer	-0.3002501
-4.34823	Amar	-0.2897429
-3.202102	America	-0.1771067
-3.202102	American	-0.05219015
-3.74617	Americans	-0.3228025
-4.34823	Amir	-0.3009131
-4.34823	Amira	-0.3000354
-4.0472	Amman	-0.1854607
-4.34823	Amr	-0.2978629
-4.34823	Amsterdam	-0.3007572
-4.0472	An	-0.221459
-4.0472	And	-0.2134309
-3.871109	Andalusia	-0.4029086
-4.0472	April	-0.6018847
-4.34823	Aqaba	-0.2998792
-2.968019	Arab	-0.169921
-4.34823	Arab-Islamic	-0.3010105
-3.871109	Arabia	-0.1461992
-3.570079	Arabic	-0.225772
-4.34823	Arabized	-0.2903422
-3.570079	Arabs	-0.2030444
-3.64926	Are	-1.200914
-4.34823	Armitage	-0.3008741
-4.34823	Army	-0.288261
-4.0472	Art	-0.5975764
-4.34823	Arts	-0.2781136
-3.34823	As	-0.5852807
-4.34823	Asian	-0.3010105
-4.34823	Asim	-0.2781136
-4.34823	Assembly	-0.3008352
-4.34823	Assiut	-0.2781136
-4.34823	Associations	-0.288261
-3.44514	At	-0.5718757
-4.34823	Athens	-0.3009715
-4.34823	Atomic	-0.3010105
-4.34823	Australia	-0.2781136
-4.34823	Authority	-0.2781136
-4.34823	Autocad	-0.2903422
-4.34823	Axis	-0.2875383
-4.34823	Aziza	-0.3010105
-4.0472	Babel	-0.2105417
-4.34823	Badr	-0.2988625
-4.0472	Baghdad	-0.1980691
-3.871109	Bahiy	-0.1631819
-4.0472	Bahrain	-0.1876579
-4.0472	Bahraini	-0.2209713
-4.0472	Bank	-0.5791436
-4.34823	Barak	-0.288261
-4.34823	Basra	-0.2926717
-4.34823	Bassam	-0.3002501
-4.34823	Be	-0.2926717
-3.871109	Bedouin	-0.1743933
-4.34823	Before	-0.3006987
-4.0472	Beirut	-0.1966471
-4.0472	Bet	-0.2216929
-4.34823	Big	-0.3009326
-3.871109	Bin	-0.4259103
-4.34823	Boston	-0.2781136
-4.34823	Bourqiba	-0.3002501
-4.0472	Britain	-0.2090196
-3.74617	British	-0.3354414
-4.0472	Brothers	-0.1876579
-3.871109	Bush	-0.1638636
-4.0472	But	-0.2202486
-3.503132	Cairo	-0.1814077
-4.34823	California	-0.288261
-4.0472	Can	-0.2154321
-4.34823	Canadian	-0.2875383
-4.34823	Canal	-0.3006402
-4.34823	Candidates	-0.3006207
-4.34823	Carter	-0.3002501
-4.0472	Chicago	-0.2089193
-3.74617	China	-0.2984499
-4.34823	Chinese	-0.3010105
-4.34823	Choose	-0.3008157
-4.34823	Christ	-0.3007572
-4.0472	Christian	-0.2216149
-4.34823	Christianity	-0.288261
-3.871109	Christians	-0.1280687
-4.34823	Citizens	-0.2988625
-4.34823	City	-0.3010105
-4.34823	Clark	-0.3010105
-4.34823	Close	-0.3007182
-4.34823	Clouds	-0.2875383
-3.871109	Club	-0.1546713
-3.871109	College	-0.8316063
-4.34823	Columbus	-0.2781136
-4.34823	Communications	-0.2903422
-4.34823	Compassionate	-0.3003282
-4.0472	Conference	-0.2189563
-4.34823	Continue	-0.3009715
-4.34823	Cool	-0.2990973
-4.34823	Couldn	-0.298882
-3.74617	Council	-0.5885281
-4.34823	Court	-0.2875383
-4.34823	Criminal	-0.3009715
-4.34823	Crown	-0.3010105
-3.74617	Cup	-0.3356947
-4.34823	Dam	-0.2903422
-4.34823	Dance	-0.3010105
-4.34823	Day	-0.2875383
-4.34823	Dear	-0.3009715
-4.34823	Death	-0.3001526
-4.0472	Defense	-0.2195246
-4.34823	Delta	-0.2903422
-4.34823	Democratic	-0.300991
-4.34823	Department	-0.300952
-4.34823	Deputies	-0.2903422
-3.871109	Despite	-0.1693187
-4.34823	Development	-0.300991
-3.74617	Did	-0.3273147
-4.0472	Didn	-0.5999121
-4.34823	Dimitri	-0.2978629
-3.234287	Do	-1.18935
-3.871109	Does	-0.1711153
-3.570079	Don	-1.340275
-4.34823	Donations	-0.300991
-3.871109	Dozens	-0.8316063
-3.64926	Dr	-0.1239637
-4.34823	Druze	-0.3009715
-4.0472	Dumyan	-0.2210299
-3.74617	During	-0.1171948
-4.34823	Dyab	-0.3001526
-4.34823	Each	-0.3010105
-3.64926	East	-0.0992207
-4.0472	Eastern	-0.22142
-4.34823	Economic	-0.300991
-4.0472	Education	-0.2044617
-3.202102	Egypt	-0.4372458
-3.306838	Egyptian	-0.06499457
-3.74617	Egyptians	-0.1206786
-4.34823	Ehud	-0.3010105
-4.34823	Either	-0.2978433
-4.34823	Eleazer	-0.2978629
-4.34823	Elias	-0.2978629
-4.34823	Eminence	-0.288261
-4.34823	Emir	-0.2875383
-4.34823	Emirates	-0.2897429
-4.34823	Endowment	-0.300952
-4.34823	Energy	-0.3010105
-4.34823	Engineering	-0.3006012
-4.0472	England	-0.2099815
-3.503132	English	-0.1626056
-4.34823	Especially	-0.3005233
-4.34823	Estate	-0.3003282
-4.34823	Esteemed	-0.3009715
-4.34823	Europe	-0.2781136
-4.0472	European	-0.2216929
-4.0472	Even	-0.1966471
-3.871109	Every	-0.1753699
-3.871109	Everything	-0.4143617
-4.34823	Evil	-0.3003282
-4.34823	Excellency	-0.288261
-4.34823	Excuse	-0.2999769
-4.34823	Exhibition	-0.3010105
-4.34823	Explain	-0.2897429
-4.34823	Eyewitnesses	-0.300991
-4.0472	Faisal	-0.221576
-4.34823	Fakkan	-0.288261
-4.34823	Farouq	-0.300991
-4.34823	Fasten	-0.2759934
-4.0472	Fatah	-0.5975764
-4.34823	Fawaz	-0.3008936
-4.34823	Fayiz	-0.3010105
-4.34823	Fayoum	-0.3010105
-4.34823	Federation	-0.2875383
-4.34823	Fernando	-0.3009326
-4.34823	Festival	-0.2926717
-4.34823	Finally	-0.288261
-3.871109	Firas	-0.1364077
-4.0472	Five	-0.2216149
-3.74617	For	-0.117174
-4.0472	Forum	-0.2118592
-4.34823	Fourth	-0.3010105
-4.0472	France	-0.1876579
-3.64926	French	-0.09253549
-3.871109	Friday	-0.1711744
-4.34823	Friends	-0.2875383
-4.34823	From	-0.2759934
-4.0472	Fund	-0.1854607
-4.34823	Furaih	-0.2897429
-4.34823	Games	-0.3009715
-4.34823	Gandhi	-0.3007572
-4.0472	Gaza	-0.6020016
-4.34823	Gene	-0.3010105
-3.871109	General	-0.1625594
-4.0472	George	-0.2217708
-3.64926	German	-0.1111053
-4.0472	Germans	-0.2089193
-4.0472	Germany	-0.2196225
-4.34823	Ghreib	-0.300991
-2.885832	God	-0.2706407
-4.34823	God…her	-0.3007962
-4.34823	Goering	-0.2781136
-4.34823	Good	-0.3008352
-4.34823	Government	-0.3010105
-4.34823	Graduate	-0.3007767
-4.34823	Green	-0.3010105
-4.34823	Guard	-0.2781136
-4.34823	Guardian	-0.3010105
-3.74617	Gulf	-0.3090395
-4.34823	Gypsies	-0.3008157
-4.34823	Habib	-0.3010105
-4.0472	Hajj	-0.2218098
-4.34823	Hamas	-0.3010105
-4.34823	Hani	-0.3010105
-4.34823	Hanun	-0.288261
-4.0472	Hardly	-0.6010655
-4.34823	Hashemite	-0.3009131
-4.34823	Hassan	-0.3008547
-4.34823	Have	-0.3006792
-2.155106	He	-0.4458365
-4.34823	Health	-0.2781136
-4.34823	Hemingway	-0.2978629
-3.269049	Her	-0.06070411
-4.34823	Hess	-0.3004452
-4.0472	High	-0.2218098
-4.34823	Higher	-0.300952
-4.34823	Him	-0.2903422
-3.117781	His	-0.1998488
-4.34823	Histology	-0.3010105
-4.34823	History	-0.3006207
-4.0472	Hitler	-0.2111211
-4.0472	Holland	-0.5791436
-4.34823	Holocaust	-0.2975096
-4.0472	Holy	-0.2217903
-4.34823	Honoring	-0.3010105
-4.34823	Hopefully	-0.2958373
-4.34823	House	-0.2781136
-3.306838	How	-0.4074888
-4.34823	Hundreds	-0.2875383
-4.34823	Hurriyya	-0.3009326
-4.34823	Hussein	-0.3009715
-1.924984	I	-0.7275775
-4.34823	II	-0.2897429
-4.34823	III	-0.2781136
-3.570079	Ibn	-0.1089886
-3.117781	If	-0.6096644
-4.34823	Imam	-0.3010105
-4.34823	Imams	-0.2875383
-3.092958	In	-0.3309076
-4.0472	India	-0.5791436
-4.34823	Indians	-0.2999573
-4.34823	Indonesia	-0.2965463
-4.34823	Institute	-0.2875383
-4.34823	Intellectual	-0.300991
-4.34823	Interior	-0.2781136
-3.871109	International	-0.1760133
-4.34823	Internet	-0.288261
-3.74617	Iran	-0.1102692
-3.74617	Iranian	-0.1456798
-4.34823	Iranians	-0.2903422
-3.172139	Iraq	-0.4014289
-3.393988	Iraqi	-0.07801097
-4.34823	Iraqi-Syrian	-0.3010105
-3.503132	Iraqis	-0.3243864
-3.64926	Is	-0.09299697
-3.871109	Islam	-0.1511785
-4.0472	Islamic	-0.2217513
-4.34823	Ismat…we	-0.2996839
-3.871109	Isn	-0.8429501
-4.0472	Israel	-0.2152344
-3.44514	Israeli	-0.08527622
-4.0472	Israeli-Palestinian	-0.2216539
-4.34823	Israelis	-0.2781136
-4.34823	Issuing	-0.2998011
-2.804162	It	-1.044459
-4.34823	Italian	-0.300952
-3.871109	Italy	-0.1752138
-4.34823	Jabal	-0.3010105
-4.34823	Jabir	-0.3010105
-4.34823	Janah	-0.300133
-4.34823	Janjaweed	-0.300952
-4.0472	January	-0.1974514
-4.0472	Japan	-0.1876579
-4.0472	Japanese	-0.2109813
-4.34823	Javi	-0.3010105
-4.34823	Jeddah	-0.288261
-4.0472	Jeff	-0.2202095
-4.34823	Jerusalem	-0.2965463
-4.0472	Jewish	-0.2214395
-4.0472	Jews	-0.1988297
-4.34823	Jidda	-0.2903422
-3.44514	Jordan	-0.1355818
-3.570079	Jordanian	-0.2377899
-4.34823	Judgment	-0.2999573
-4.34823	July	-0.2875383
-4.34823	June	-0.3005427
-4.0472	Justice	-0.1986653
-4.34823	Kalba	-0.2903422
-4.0472	Kalthoum	-0.2210104
-4.34823	Karam	-0.3010105
-4.34823	Keeping	-0.300991
-4.34823	Khaldun	-0.300991
-3.871109	Khalid	-0.4258324
-4.34823	Khan	-0.3010105
-4.34823	Khomeini	-0.3010105
-4.34823	Khor	-0.3010105
-3.570079	King	-0.2207036
-4.0472	Korea	-0.2209908
-4.34823	Kurdish	-0.3009131
-4.34823	Kuwait	-0.288261
-3.871109	Kuwaiti	-0.175799
-4.34823	Labor	-0.3009715
-4.0472	Laden	-0.2209128
-4.34823	Lahore	-0.3008741
-4.34823	Lamis	-0.3008936
-4.34823	Land	-0.288261
-4.0472	League	-0.196709
-3.871109	Lebanese	-0.1530106
-4.34823	Lebanon	-0.2781136
-4.34823	Leningrad	-0.2965463
-4.34823	Libya	-0.2781136
-4.34823	Lieutenant	-0.288261
-4.34823	Life	-0.3007572
-4.34823	Line	-0.2963101
-4.34823	Lira	-0.2897429
-4.0472	Listen	-0.5892911
-4.34823	London	-0.2781136
-4.34823	Look	-0.288261
-3.871109	Lord	-0.1628406
-4.34823	MA	-0.2903422
-4.34823	Madrid	-0.3010105
-3.871109	Magd	-0.4238013
-4.34823	Maginot	-0.3009326
-4.34823	Maha	-0.3004452
-4.34823	Mahdi	-0.3010105
-4.34823	Mahfouz	-0.2988625
-3.74617	Mahmoud	-0.1377102
-4.34823	Mahmud	-0.3008936
-4.0472	Majd	-0.6019821
-3.64926	Majesty	-0.0846358
-3.570079	Many	-0.384388
-4.34823	Maresca	-0.2998792
-4.34823	Mariam	-0.3010105
-4.34823	Market	-0.3006402
-4.34823	Marsa	-0.3010105
-4.34823	Marwan	-0.2989408
-4.34823	Matruh	-0.3005233
-4.34823	Matti	-0.3009715
-4.34823	Mauritanian	-0.3001721
-4.34823	Max	-0.3007962
-3.64926	May	-0.4752668
-4.34823	Maybe	-0.2958373
-4.34823	Mecca	-0.2935842
-4.0472	Medicine	-0.5791436
-4.34823	Medina	-0.288261
-4.34823	Mediterranean	-0.3010105
-4.34823	Merciful	-0.288261
-4.34823	Metro	-0.3010105
-4.34823	Mexican	-0.300991
-4.0472	Michelle	-0.2186621
-4.0472	Middle	-0.6019626
-3.74617	Minister	-0.3091017
-4.34823	Ministers	-0.3008741
-4.34823	Ministries	-0.2875383
-3.64926	Ministry	-1.190628
-4.34823	Miryam	-0.3002501
-4.34823	Mogadishu	-0.2926717
-4.34823	Monetary	-0.300991
-4.34823	Money	-0.3010105
-4.0472	Montgomery	-0.2082767
-4.34823	More	-0.3004452
-4.34823	Moroccan	-0.300952
-4.34823	Morocco	-0.288261
-3.871109	Most	-0.8316063
-4.34823	Motors	-0.300991
-3.871109	Mr	-0.1760328
-3.74617	Mrs	-0.3349732
-4.34823	Mubarak	-0.2781136
-4.34823	Mufti	-0.300991
-4.0472	Muhammad	-0.2186425
-4.34823	Murad	-0.3010105
-3.570079	Muslim	-0.2276749
-3.74617	Muslims	-0.1111779
-4.0472	Mustafa	-0.1989118
-3.092958	My	-0.1355083
-4.34823	NATO	-0.3008936
-4.34823	Nafie	-0.3009715
-4.34823	Najaf	-0.3009131
-4.34823	Nasr	-0.3010105
-4.0472	National	-0.2217903
-4.0472	Nations	-0.2217903
-4.34823	Nature	-0.3009326
-4.34823	Navarro	-0.2998792
-4.34823	Nayf	-0.300991
-4.34823	Nazi	-0.3009715
-4.34823	Nazur	-0.3010105
-4.34823	Necessity	-0.3009326
-4.0472	Neither	-0.2216734
-3.871109	New	-0.4259103
-4.34823	Next	-0.3009326
-4.0472	Nile	-0.211141
-4.34823	Nissan	-0.3010105
-4.0472	Nizar	-0.2207175
-3.503132	No	-0.490733
-4.34823	North	-0.300991
-4.34823	Not	-0.3005622
-4.34823	Nouri	-0.3010105
-4.34823	November	-0.2903422
-4.34823	Now	-0.2958373
-4.34823	Nuwas	-0.2759934
-4.34823	Odah	-0.300991
-4.34823	Ok	-0.3010105
-4.34823	Olympic	-0.3010105
-4.34823	Oman	-0.2781136
-4.0472	On	-0.5770234
-3.64926	One	-0.7398159
-4.34823	Or	-0.2996839
-4.0472	Organization	-0.2110212
-3.34823	Our	-0.07110687
-3.871109	PLO	-0.3983245
-4.34823	Pakistan	-0.2988625
-3.74617	Palestine	-0.3108793
-3.393988	Palestinian	-0.1560861
-3.570079	Palestinians	-0.2016459
-4.0472	Parliament	-0.1988091
-4.34823	Parliamentary	-0.3009715
-3.871109	Party	-0.1390461
-4.0472	Pasha	-0.2102617
-4.34823	Pasquale	-0.288261
-4.34823	Peace	-0.300991
-4.34823	People	-0.3003867
-4.34823	Peoples	-0.3008936
-4.34823	Pepsi	-0.2781136
-4.0472	Perhaps	-0.2193875
-4.34823	Persian	-0.3010105
-4.34823	Peshawar	-0.2903422
-4.34823	PhD	-0.3010105
-4.34823	Pharmacists	-0.3009715
-4.34823	Please	-0.3008352
-4.34823	Pop	-0.3009715
-4.0472	Pope	-0.2205613
-4.34823	Portraits	-0.3010105
-4.0472	Praise	-0.2197595
-3.74617	President	-0.3356752
-4.0472	Prime	-0.6019821
-4.34823	Prince	-0.2903422
-4.34823	Prior	-0.2897429
-4.34823	Prize	-0.2975096
-4.34823	Prof	-0.3010105
-4.0472	Prophet	-0.2069281
-4.0472	Public	-0.2218098
-4.34823	Put	-0.3006792
-4.34823	Pyramids	-0.3008741
-4.0472	Qabbani	-0.1989118
-4.0472	Qais	-0.1973277
-4.34823	Qamara	-0.3009131
-4.34823	Qatar	-0.288261
-3.570079	Qur	-0.8844897
-3.871109	Ra	-0.8450396
-4.34823	Rafai	-0.300952
-4.34823	Rafiq	-0.3010105
-4.34823	Ramadan	-0.288261
-4.34823	Ramses	-0.3010105
-4.34823	Reconciliation	-0.300991
-4.34823	Religion	-0.2965463
-4.0472	Religious	-0.2218098
-4.34823	Remember	-0.2963101
-4.34823	Republic	-0.2875383
-4.34823	Revolutionary	-0.3010105
-4.34823	River	-0.288261
-3.871109	Riyadh	-0.8221816
-4.34823	Roman	-0.3008352
-4.34823	Rome	-0.2781136
-3.74617	Rommel	-0.1156722
-4.34823	Roosevelt	-0.3008741
-4.34823	Rushdi	-0.2978629
-4.34823	Russia	-0.2903422
-4.34823	Russian	-0.3008352
-4.34823	Saad	-0.3010105
-4.34823	Saddam	-0.3008741
-4.0472	Sadim	-0.2217903
-4.34823	Saif	-0.3010105
-4.0472	Salah	-0.2090397
-4.0472	Salih	-0.2090597
-4.34823	Samir	-0.3010105
-4.0472	Samira	-0.2004697
-4.34823	Sarkozy	-0.3009715
-4.34823	Saturday	-0.2996839
-3.64926	Saudi	-0.4769264
-4.34823	Say	-0.3003282
-4.34823	Sayyed	-0.3009715
-4.34823	Sea	-0.2781136
-4.0472	Secretary	-0.2082968
-4.34823	Seeds	-0.300952
-4.34823	Selim	-0.3010105
-4.0472	September	-0.2173257
-4.0472	Seventh	-0.2217903
-4.34823	Seville	-0.3009715
-4.34823	Shah	-0.2926717
-4.34823	Shawarbi	-0.3009326
-2.54205	She	-0.3532851
-3.44514	Sheikh	-0.07095764
-4.34823	Shima	-0.3009326
-4.34823	Shin	-0.300991
-4.34823	Short	-0.3010105
-4.34823	Should	-0.2997034
-3.871109	Since	-0.1404862
-4.34823	Sir	-0.288261
-4.34823	Sleep	-0.3007962
-4.34823	Smoking	-0.3008157
-4.34823	So	-0.2997034
-3.871109	Social	-0.1760328
-4.34823	Some	-0.2875383
-4.34823	South	-0.300991
-4.0472	Spaniards	-0.5892911
-4.34823	Spanish	-0.3009715
-4.34823	Sports	-0.3008547
-4.34823	Square	-0.2963101
-4.34823	Stadium	-0.2781136
-4.34823	Standard	-0.3009131
-4.34823	Star	-0.3009715
-4.34823	State	-0.3008741
-4.34823	Stated	-0.300991
-3.503132	States	-0.4667663
-4.0472	Stay	-0.2171683
-4.34823	Stories	-0.2781136
-3.64926	Street	-0.4452633
-3.871109	Strip	-0.3983245
-4.34823	Student	-0.3009715
-4.34823	Sudan	-0.2781136
-4.34823	Suddenly	-0.2996253
-4.34823	Suez	-0.3010105
-4.34823	Sulaimaniyya	-0.3008741
-4.0472	Sultan	-0.2218098
-4.34823	Sunday	-0.3007767
-4.34823	Sundays	-0.2897429
-4.34823	Sunna	-0.2875383
-4.34823	Surah	-0.3003282
-4.34823	Surani	-0.3008936
-4.34823	Surgery	-0.2994298
-3.570079	Syria	-0.235558
-4.34823	Syrian	-0.3010105
-4.34823	Syrians	-0.3006402
-4.34823	T	-0.3000354
-4.34823	TV	-0.2781136
-4.34823	Tabruk	-0.288261
-4.34823	Tahir	-0.2999378
-4.34823	Take	-0.3002697
-4.34823	Takfiris	-0.2989408
-4.34823	Talha	-0.2781136
-4.0472	Tanta	-0.2099415
-3.871109	Tariq	-0.4130995
-4.34823	Test	-0.300991
-3.871109	Thank	-0.8418918
-3.64926	That	-0.114231
-2.09781	The	-0.1713792
-4.34823	Theatrical	-0.3010105
-3.871109	Their	-0.1759159
-4.34823	Then	-0.2978433
-2.916867	There	-1.39514
-4.0472	Therefore	-0.2183284
-3.64926	These	-0.1214773
-3.005808	They	-0.1078034
-4.0472	Things	-0.2185247
-4.34823	Thinking	-0.2903422
-4.34823	Thirteen	-0.3008936
-2.95029	This	-0.2317974
-4.0472	Three	-0.2216149
-4.34823	Through	-0.3009715
-4.34823	Thursday	-0.2897429
-3.871109	Today	-0.1497942
-4.34823	Tomorrow	-0.288261
-4.34823	Tonight	-0.2965463
-4.34823	Tourism	-0.2781136
-4.34823	Tourists	-0.3007572
-4.34823	Traffic	-0.300952
-4.34823	Tubal	-0.2781136
-4.34823	Tuesday	-0.300952
-4.34823	Tunis	-0.288261
-4.34823	Tuqan	-0.2999378
-4.0472	Turkey	-0.1972659
-3.74617	Two	-0.1236631
-4.34823	US	-0.300991
-3.871109	Um	-0.4258908
-3.871109	Union	-0.4208352
-3.393988	United	-0.9028952
-4.34823	Unity	-0.3010105
-4.0472	University	-0.2083369
-4.34823	Up	-0.2897429
-4.34823	Upper	-0.3007572
-4.34823	Uthimin	-0.2897429
-4.34823	Uthman	-0.3009131
-4.34823	Victory	-0.2988625
-4.34823	Violent	-0.300991
-4.34823	Wahhabi	-0.3009715
-4.0472	War	-0.198727
-4.0472	Was	-0.2198769
-4.34823	Washington	-0.288261
-4.34823	Water	-0.2965463
-2.676132	We	-0.3558729
-4.34823	Welcome	-0.2897429
-4.34823	Well	-0.288261
-4.34823	Weren	-0.298882
-4.34823	Wesley	-0.3010105
-3.64926	West	-0.254521
-3.871109	Western	-0.1758769
-3.0472	What	-0.4350835
-3.44514	When	-0.4315787
-4.34823	Whenever	-0.2759934
-3.64926	Where	-0.4713367
-4.34823	White	-0.3010105
-3.871109	Who	-0.4192951
-4.0472	Whoever	-0.2218098
-4.34823	Whom	-0.3005427
-3.234287	Why	-0.4173394
-4.34823	Will	-0.2999573
-4.34823	Wilword	-0.288261
-4.0472	With	-0.1951583
-4.34823	Works	-0.2903422
-3.44514	World	-0.4255854
-4.0472	Would	-0.211141
-4.34823	Wuld	-0.3010105
-4.34823	Year	-0.300991
-4.34823	Yemen	-0.2781136
-3.74617	Yes	-0.2978764
-4.0472	York	-0.1980691
-3.172139	You	-0.5440161
-4.34823	Young	-0.3005622
-3.74617	Your	-0.1457383
-4.34823	Yunan	-0.3007572
-4.34823	Yusuf	-0.3010105
-4.34823	Yvonne	-0.2978629
-4.34823	Zaghloul	-0.300991
-3.74617	Zahra	-0.1431572
-4.0472	Zionist	-0.2218098
-4.34823	Zionists	-0.2988625
-1.769591	a	-0.3346066
-4.34823	abandons	-0.2759934
-4.34823	abilities	-0.3008936
-3.74617	ability	-0.5769202
-3.172139	able	-2.071498
-4.34823	ablutions	-0.288261
-2.600042	about	-0.4706614
-4.34823	above	-0.3007182
-4.34823	abroad	-0.288261
-4.34823	absence	-0.2875383
-4.34823	absolute	-0.300991
-4.34823	abstained	-0.2781136
-4.34823	abuse	-0.2781136
-4.34823	academic	-0.3009715
-4.34823	academics	-0.2999378
-4.0472	accept	-0.1951583
-4.34823	acceptance	-0.288261
-4.34823	accepted	-0.3005233
-4.34823	accepting	-0.3008157
-4.34823	accident	-0.2989408
-4.34823	accidents	-0.2926717
-4.0472	accompanied	-0.2191328
-3.64926	accomplish	-0.270832
-4.34823	accomplishes	-0.2935842
-4.0472	accomplishments	-0.1854607
-4.34823	accordance	-0.2980395
-3.570079	according	-1.331136
-3.871109	account	-0.4014478
-4.34823	accountant	-0.288261
-4.0472	accountants	-0.5791436
-4.0472	accused	-0.221459
-4.0472	accusing	-0.2197987
-4.34823	achieve	-0.3010105
-3.871109	achieved	-0.1341395
-4.34823	achievement	-0.3003087
-4.34823	acquaintances	-0.300133
-4.34823	across	-0.2759934
-4.34823	act	-0.3010105
-4.34823	acting	-0.2926717
-4.34823	action	-0.2935842
-4.34823	actions	-0.2978433
-3.871109	activities	-0.3895807
-4.34823	activity	-0.2875383
-4.34823	acts	-0.3005427
-3.871109	actual	-0.1758964
-4.0472	actually	-0.2218098
-3.871109	ad	-0.175643
-4.34823	add	-0.3004647
-4.34823	added	-0.3006597
-4.34823	addict	-0.2994494
-4.0472	addiction	-0.1942044
-4.0472	addicts	-0.1901166
-4.34823	addition	-0.2897429
-4.0472	additional	-0.2217708
-4.0472	address	-0.1846975
-3.871109	adhere	-0.8338109
-3.64926	administration	-0.08508439
-4.34823	administrative	-0.3009715
-4.34823	admiration	-0.2903422
-4.34823	admitted	-0.2975096
-4.34823	adobe	-0.2903422
-4.34823	adolescence	-0.2989408
-4.34823	adopted	-0.2990973
-4.34823	ads	-0.2897429
-4.34823	adultery	-0.2781136
-4.34823	advanced	-0.2926717
-4.0472	advise	-0.5988538
-4.0472	affairs	-0.2079349
-4.0472	afraid	-0.2081561
-2.856869	after	-0.5545701
-4.0472	afternoon	-0.218819
-3.44514	again	-0.1326824
-3.34823	against	-0.204697
-3.64926	age	-0.4260422
-4.0472	agency	-0.2111211
-4.0472	agenda	-0.1846975
-4.34823	agitation	-0.2994494
-3.44514	ago	-0.7726958
-3.871109	agree	-0.1568553
-4.0472	agreed	-0.219505
-3.570079	agreement	-0.5873408
-4.34823	agreements	-0.2903422
-4.34823	agrees	-0.288261
-4.34823	agricultural	-0.300991
-3.871109	ahead	-0.399299
-4.34823	aid	-0.3010105
-4.0472	aimed	-0.2108814
-3.74617	air	-0.2981738
-4.34823	airline	-0.3010105
-4.34823	airplanes	-0.3007572
-4.34823	al-Khalili	-0.2781136
-4.34823	al-Nasr	-0.288261
-4.34823	alarm	-0.2781136
-4.0472	alcohol	-0.2079751
-4.34823	alive…	-0.3009715
-2.695018	all	-0.2927946
-4.34823	alley	-0.2996839
-4.34823	alleyways	-0.288261
-4.0472	allow	-0.2216149
-3.64926	almost	-0.1171956
-3.74617	alone	-0.1134939
-3.871109	along	-0.8421075
-3.306838	also	-0.00877722
-3.74617	always	-0.1324957
-3.092958	am	-0.1313819
-4.0472	amazed	-0.2200726
-4.34823	amazement	-0.3002501
-3.871109	ambassador	-0.1486337
-4.0472	ambition	-0.1942044
-3.306838	among	-0.2789701
-4.34823	amount	-0.2875383
-2.54889	an	-0.1510671
-4.0472	ancient	-0.6019431
-1.614231	and	-0.2820563
-3.570079	anger	-0.2142168
-4.34823	angers	-0.3004647
-4.34823	animals	-0.2963101
-4.34823	annihilate	-0.2990973
-4.34823	annihilation	-0.3007767
-4.34823	anniversary	-0.2875383
-4.0472	announce	-0.2212835
-3.44514	announced	-0.03670605
-4.34823	announcing	-0.2963101
-3.306838	another	-0.03890792
-3.44514	answer	-0.2570784
-4.0472	answered	-0.1724971
-4.34823	answers	-0.2781136
-4.34823	anti-Syrian	-0.3009131
-4.34823	anti-hero	-0.3008157
-4.34823	ants	-0.288261
-4.34823	anxieties	-0.3010105
-2.885832	any	-0.101574
-3.503132	anyone	-0.1726173
-3.117781	anything	-0.2079893
-4.34823	apart	-0.3005233
-3.64926	apartment	-0.2488407
-4.34823	apartments	-0.2781136
-4.0472	apologize	-0.5985397
-4.34823	apparatus	-0.2903422
-3.74617	appear	-0.3073791
-4.34823	appearance	-0.2978629
-3.503132	appeared	-0.157435
-3.74617	appears	-0.1123585
-4.34823	application	-0.2897429
-3.871109	appointed	-0.1420901
-4.34823	appointment	-0.2781136
-4.0472	appointments	-0.2089193
-4.34823	appreciation	-0.2781136
-4.34823	approach	-0.2781136
-4.34823	approached	-0.2990386
-4.34823	approaching	-0.300991
-3.871109	appropriate	-0.17206
-4.0472	approximately	-0.1989118
-4.34823	architecture	-0.3006207
-2.302907	are	-0.1278542
-3.44514	area	-0.2496879
-4.0472	areas	-0.2052719
-4.34823	aren	-0.298882
-4.34823	arena	-0.2781136
-4.34823	arenas	-0.288261
-4.34823	argue	-0.3006207
-4.34823	arguments	-0.2926717
-4.0472	armed	-0.2188387
-4.0472	armies	-0.1854607
-4.34823	arms	-0.2897429
-3.570079	army	-0.05718813
-4.34823	arose	-0.2781136
-3.306838	around	-0.01252466
-3.871109	arrested	-0.4152611
-3.64926	arrival	-0.4437515
-4.0472	arrive	-0.2129938
-3.74617	arrived	-0.5923294
-4.34823	arsenals	-0.2989408
-3.64926	art	-0.240689
-4.34823	arteries	-0.2875383
-3.871109	article	-0.1730223
-4.0472	articles	-0.219505
-4.0472	artificial	-0.2217708
-4.0472	artist	-0.1987064
-4.34823	artistic	-0.300991
-4.34823	artwork	-0.288261
-2.413732	as	-0.7476524
-3.34823	ask	-0.4507626
-3.269049	asked	-0.1709185
-3.871109	asking	-0.4207563
-4.0472	asks	-0.221576
-4.34823	asleep	-0.2781136
-4.34823	aspires	-0.2897429
-4.34823	assailant	-0.298745
-4.34823	assailants	-0.2781136
-4.0472	assassination	-0.2217708
-4.34823	assassinations	-0.2926717
-4.34823	assaulting	-0.2759934
-4.34823	assignment	-0.3005233
-4.34823	assistant	-0.288261
-4.34823	association	-0.2965463
-4.34823	associations	-0.2980395
-4.34823	assumed	-0.3009715
-4.0472	assured	-0.6000687
-2.509381	at	-0.6933091
-4.34823	athletes	-0.2903422
-4.34823	athletic	-0.300952
-4.34823	atomic	-0.300991
-4.0472	attached	-0.5907729
-3.74617	attack	-0.3101774
-4.0472	attacked	-0.2168531
-3.871109	attacks	-0.1298274
-4.0472	attempt	-0.1854607
-4.0472	attempts	-0.1870252
-4.34823	attend	-0.300094
-4.34823	attendance	-0.3010105
-3.871109	attention	-0.400829
-4.34823	attract	-0.2759934
-4.34823	attracted	-0.3002697
-4.34823	attraction	-0.3005818
-4.34823	attractive	-0.288261
-4.34823	attributed	-0.2897429
-4.34823	aunt	-0.3007962
-4.0472	author	-0.2218098
-4.0472	authorities	-0.1977192
-4.34823	authority	-0.2781136
-4.34823	automatically	-0.2781136
-3.871109	available	-0.3911453
-4.0472	average	-0.2181516
-4.34823	aviation	-0.2781136
-3.74617	avoid	-0.3095157
-4.34823	avoided	-0.300952
-4.34823	await	-0.2990973
-4.34823	awaited	-0.300055
-4.0472	awaiting	-0.2196812
-4.34823	awake	-0.3009131
-4.34823	aware	-0.2875383
-3.570079	away	-0.3718498
-4.34823	awoke	-0.300952
-4.34823	baby	-0.3002501
-3.393988	back	-0.6686738
-4.34823	backwards	-0.288261
-3.570079	bad	-0.08661803
-4.0472	bag	-0.218073
-4.34823	balance	-0.2781136
-4.34823	balconies	-0.2781136
-4.0472	bank	-0.2217124
-4.34823	banking	-0.300991
-4.0472	banned	-0.2185836
-4.34823	banning	-0.2759934
-4.34823	bar	-0.2903422
-4.34823	bare-chested	-0.3008352
-4.0472	barely	-0.1966677
-4.0472	barrel	-0.5791436
-4.34823	barrels	-0.2875383
-4.34823	barrier	-0.3005818
-4.34823	base	-0.298745
-4.34823	based	-0.298745
-4.34823	bases	-0.2875383
-3.871109	basic	-0.4258519
-4.34823	basically	-0.3008157
-3.64926	basis	-0.2237128
-4.0472	bathroom	-0.1876579
-3.64926	battle	-0.2440567
-4.34823	battlefield	-0.2781136
-4.34823	battlefields	-0.3006012
-4.34823	battles	-0.2781136
-2.456136	be	-0.04887638
-4.34823	beach	-0.2975096
-4.0472	beans	-0.2190152
-4.0472	bear	-0.1974514
-4.34823	beard	-0.300991
-4.34823	bears	-0.2759934
-3.871109	beat	-0.1705041
-3.570079	beating	-0.2106354
-4.34823	beauties	-0.288261
-3.44514	beautiful	-0.03530362
-3.871109	beauty	-0.1362583
-3.393988	became	-0.3591987
-3.005808	because	-0.6456128
-3.64926	become	-0.7458621
-3.871109	becomes	-0.1757405
-4.0472	bed	-0.1854607
-4.0472	bedroom	-0.1854607
-2.916867	been	0.01808103
-2.95029	before	-0.3242683
-3.74617	beg	-0.5953072
-3.202102	began	-0.9979776
-4.34823	begged	-0.3008157
-3.74617	begin	-0.1095281
-3.34823	beginning	-0.3931575
-4.34823	begins	-0.2975685
-3.871109	behalf	-0.8316063
-3.269049	behind	-0.5672786
-3.34823	being	-0.07200494
-4.34823	belief	-0.288261
-3.34823	believe	-0.7556692
-4.0472	believed	-0.5973402
-4.34823	believes	-0.2963101
-4.34823	believing	-0.300991
-4.34823	bell	-0.3008741
-4.34823	belong	-0.2897429
-4.34823	belonging	-0.2903422
-4.34823	beloved	-0.300991
-4.34823	beneficial	-0.2975096
-4.34823	benefit	-0.2781136
-4.34823	benefiting	-0.300952
-4.0472	benefits	-0.1966471
-4.0472	beside	-0.2196617
-4.34823	besides	-0.3009715
-3.503132	best	-0.2086554
-4.34823	betray	-0.2999769
-3.74617	better	-0.1371737
-4.34823	bettering	-0.3007962
-2.986503	between	-0.6771088
-3.871109	beyond	-0.4004987
-4.34823	bicycle	-0.2965463
-4.34823	bicycles	-0.2926717
-3.306838	big	-0.05337472
-3.871109	bigger	-0.1645842
-4.0472	biggest	-0.2218098
-4.34823	big…it	-0.3002501
-4.0472	bill	-0.2090597
-3.871109	billion	-0.4258129
-4.34823	billions	-0.2875383
-4.34823	bills	-0.2781136
-4.34823	bin	-0.3010105
-4.34823	birth	-0.2781136
-4.34823	birthdays	-0.2875383
-3.871109	bit	-0.1515909
-4.34823	bitter	-0.3010105
-3.503132	black	-0.1983123
-4.34823	bless	-0.2978237
-4.34823	blessing	-0.2975096
-4.34823	blew	-0.3006012
-3.64926	blood	-0.2332042
-4.34823	blows	-0.2980395
-4.34823	blueness	-0.2875383
-4.34823	bodes	-0.3007962
-4.34823	bodies	-0.2875383
-3.64926	body	-0.2645983
-4.0472	bomb	-0.2169516
-4.34823	bombing	-0.2781136
-4.34823	bombs	-0.3010105
-4.34823	bonds	-0.2781136
-4.34823	booby-trapped	-0.3008547
-3.503132	book	-0.07771477
-4.0472	books	-0.1980691
-4.34823	borders	-0.2903422
-4.34823	bore	-0.2759934
-4.0472	born	-0.5937018
-4.34823	borrowed	-0.3008157
-3.64926	both	-1.190628
-4.34823	bother	-0.2990386
-4.34823	bothering	-0.2978237
-4.34823	bought	-0.2935842
-4.34823	bounds	-0.2781136
-4.34823	box	-0.2926717
-3.871109	boy	-0.1753309
-4.34823	boys	-0.2998792
-4.0472	brain	-0.1846975
-3.74617	bread	-0.2877696
-4.34823	breadth	-0.2875383
-4.34823	break	-0.2903422
-4.34823	breaking	-0.3010105
-4.34823	breath	-0.2903422
-4.0472	breathing	-0.1988913
-4.34823	bribes	-0.288261
-4.0472	bridge	-0.598893
-4.34823	brilliant	-0.2903422
-3.871109	bring	-0.1744129
-4.34823	bringing	-0.3009326
-4.0472	broke	-0.2137882
-3.871109	broken	-0.4247399
-3.503132	brother	-0.04788557
-3.74617	brothers	-0.5782803
-4.34823	brought	-0.2759934
-4.34823	budget	-0.2975096
-3.74617	build	-0.1065725
-3.503132	building	-0.1591435
-4.34823	buildings	-0.2926717
-3.74617	built	-0.08435807
-4.34823	bulletins	-0.2996839
-3.871109	bullets	-0.1713123
-4.34823	burden	-0.2781136
-4.34823	burdening	-0.2759934
-4.34823	burdens	-0.3003672
-4.34823	burned	-0.3007377
-4.34823	burrow	-0.2897429
-4.34823	business	-0.2903422
-4.34823	businesses	-0.2926717
-4.34823	busy	-0.2975096
-2.600042	but	-0.8157195
-4.34823	butcher	-0.2978629
-3.64926	buy	-0.1116077
-2.780029	by	-0.278398
-4.34823	cafeteria	-0.2781136
-4.34823	cafés	-0.2965463
-4.34823	calculated	-0.2759934
-3.503132	call	-0.1792841
-4.0472	called	-0.2172667
-3.503132	calling	-0.3364408
-4.34823	calls	-0.2975096
-3.74617	calm	-0.1314089
-3.202102	came	-0.2644977
-4.34823	camel	-0.2978433
-4.34823	camera	-0.2903422
-3.871109	camp	-0.1526407
-4.0472	campaign	-0.1988297
-4.34823	campaigns	-0.2781136
-2.885832	can	-0.2359483
-4.34823	cancelled	-0.2781136
-4.0472	cancer	-0.5791436
-4.34823	cannons	-0.300952
-3.570079	cannot	-0.3959682
-4.34823	canvases	-0.2989408
-4.34823	cap	-0.298745
-4.0472	capabilities	-0.1846975
-4.34823	capable	-0.2875383
-3.74617	capital	-0.3072335
-4.34823	captured	-0.3009131
-3.393988	car	-0.1192977
-4.34823	cards	-0.3004257
-3.570079	care	-0.1990277
-4.34823	cared	-0.2999378
-4.34823	career	-0.3008936
-4.34823	care”	-0.2998792
-3.64926	carried	-0.7295685
-4.0472	carries	-0.6012607
-3.871109	carry	-0.8442987
-3.871109	carrying	-0.1708591
-4.34823	cars	-0.2926717
-4.34823	case	-0.2759934
-4.34823	cases	-0.3004647
-4.0472	catastrophe	-0.1854607
-3.74617	cause	-0.140383
-4.34823	ceasing	-0.288261
-4.0472	ceiling	-0.2047251
-4.0472	celebrate	-0.5770234
-4.34823	celebrations	-0.2781136
-3.871109	cell	-0.4029702
-3.871109	center	-0.1608681
-4.34823	centre	-0.2875383
-4.34823	centuries	-0.2781136
-4.0472	century	-0.2189759
-4.34823	ceremony	-0.2781136
-3.871109	certain	-0.3959306
-4.34823	certificates	-0.2875383
-4.34823	certificates…	-0.2999378
-3.871109	chair	-0.1653037
-4.0472	challenges	-0.2181516
-4.34823	chamber	-0.3010105
-4.34823	champion	-0.2875383
-4.34823	championship	-0.3009715
-4.0472	championships	-0.205454
-4.34823	chance	-0.3008352
-3.871109	change	-0.170287
-3.44514	changed	-0.04923443
-4.0472	changes	-0.2019812
-4.34823	changing	-0.288261
-4.34823	chants	-0.2759934
-4.0472	chaos	-0.2204049
-4.34823	chapters	-0.2926717
-4.34823	characteristic	-0.2781136
-4.0472	characteristics	-0.2073512
-4.34823	characterizes	-0.3003087
-4.34823	chased	-0.300055
-4.34823	check	-0.3004257
-4.34823	cheek	-0.2903422
-4.34823	cheese	-0.288261
-4.34823	chicken	-0.2989408
-4.34823	chief	-0.2975096
-3.74617	child	-0.5758043
-4.34823	childhood	-0.2781136
-3.202102	children	-0.1732644
-4.0472	choice	-0.1980073
-3.871109	choose	-0.147387
-4.0472	choosing	-0.2217513
-4.0472	chose	-0.214284
-4.34823	chosen	-0.3010105
-4.0472	churches	-0.2181516
-4.34823	cigarette	-0.3009715
-3.871109	circle	-0.1623986
-4.34823	circles	-0.300952
-3.74617	circumstances	-0.3014748
-4.0472	cities	-0.2112808
-4.0472	citizen	-0.2104217
-4.0472	citizens	-0.1981308
-3.117781	city	-0.7118233
-4.0472	civil	-0.211141
-4.0472	civilian	-0.2206394
-4.34823	civilians	-0.2998792
-4.34823	claim	-0.3005233
-4.34823	clamor	-0.2875383
-3.871109	clarified	-0.8403782
-4.34823	clash	-0.2980395
-3.74617	class	-0.1212359
-4.34823	classmates	-0.3004257
-4.34823	clean	-0.3006207
-3.44514	clear	-0.4081131
-4.34823	climbed	-0.2759934
-4.34823	cling	-0.2897429
-4.34823	clocks	-0.2781136
-4.0472	close	-0.184846
-4.0472	closed	-0.5770234
-4.0472	closing	-0.1983776
-4.34823	clot	-0.2926717
-3.570079	clothes	-0.0525088
-3.44514	clothing	-0.5533625
-4.34823	cloud	-0.2875383
-4.34823	clouds	-0.300991
-3.871109	club	-0.1657627
-4.0472	clubs	-0.1984804
-4.34823	clung	-0.2897429
-4.34823	coast	-0.2875383
-4.34823	coat	-0.288261
-4.34823	cockroaches	-0.2781136
-3.64926	coffee	-0.2568217
-4.34823	cola	-0.288261
-4.34823	cold	-0.3009131
-3.74617	colleague	-0.3278308
-3.871109	colleagues	-0.8221816
-4.34823	collections	-0.2875383
-3.871109	college	-0.400829
-4.34823	colonists	-0.2998792
-3.871109	color	-0.1510547
-4.34823	coma	-0.288261
-3.202102	come	-0.289294
-3.871109	comes	-0.4130594
-4.34823	comic	-0.3008936
-3.34823	coming	-0.2005282
-4.34823	commanded	-0.2759934
-4.34823	comment	-0.298745
-4.34823	commenting	-0.298745
-3.74617	commercial	-0.1458942
-4.0472	commit	-0.2202681
-3.74617	committed	-0.1147938
-3.74617	committee	-0.09664543
-4.34823	committing	-0.3008352
-4.34823	communications	-0.3008547
-3.871109	communiqué	-0.1523116
-4.34823	communist	-0.2996253
-3.74617	companies	-0.09568389
-4.34823	companion	-0.3010105
-3.871109	company	-0.17496
-4.0472	compared	-0.2074922
-4.34823	comparison	-0.288261
-4.34823	competition	-0.2781136
-4.34823	complaining	-0.2999378
-4.0472	complaint	-0.2057168
-3.74617	complete	-0.1351008
-4.0472	completed	-0.2182695
-3.64926	completely	-0.1133317
-4.34823	complicated	-0.300952
-4.34823	comprehend	-0.2990973
-3.871109	comprehensive	-0.1759159
-3.570079	computer	-0.5678059
-4.34823	computers	-0.2897429
-4.34823	concentrate	-0.3005037
-4.34823	concern	-0.2978237
-4.34823	concerned	-0.2781136
-4.0472	concerning	-0.1967916
-4.0472	concluded	-0.2141651
-4.0472	conclusion	-0.195179
-4.34823	condemned	-0.2759934
-4.0472	condition	-0.1854607
-3.64926	conditions	-0.4644927
-4.34823	confesses	-0.2897429
-4.34823	confidence	-0.288261
-4.34823	confidential	-0.3009326
-4.34823	confidently	-0.2903422
-3.74617	confirmed	-0.3305403
-4.0472	confirms	-0.5973402
-3.871109	conflict	-0.1483847
-4.34823	confrontation	-0.2993516
-4.0472	confrontations	-0.2131329
-4.34823	confuse	-0.300055
-4.0472	confused	-0.22142
-4.34823	congratulate	-0.2978237
-4.34823	congratulations	-0.298745
-4.34823	connected	-0.2980395
-4.34823	consciousness	-0.288261
-4.34823	consecutive	-0.3010105
-4.34823	consensus	-0.2875383
-3.871109	consider	-0.1712335
-4.0472	consideration	-0.5885683
-3.74617	considered	-0.3222401
-4.0472	considering	-0.1947646
-4.34823	consistent	-0.2980395
-4.34823	conspires	-0.3008352
-4.0472	constitution	-0.1984804
-4.34823	consult	-0.2999378
-4.34823	consultation	-0.2965463
-4.34823	consume	-0.300952
-4.34823	consumption	-0.2903422
-4.0472	contact	-0.2177979
-4.34823	contacted	-0.2986275
-4.34823	contain	-0.300991
-4.34823	contemplation	-0.2988625
-4.34823	contented	-0.2996253
-4.34823	contents	-0.2875383
-4.34823	contest	-0.2975096
-4.34823	continually	-0.3009715
-4.34823	continuation	-0.2875383
-3.64926	continue	-0.2399229
-3.570079	continued	-0.09291147
-4.0472	continues	-0.213113
-3.871109	continuing	-0.4111287
-4.0472	contract	-0.2099015
-4.34823	contracts	-0.2975096
-4.34823	contradict	-0.2759934
-4.34823	contradiction	-0.2897429
-4.34823	contrary	-0.288261
-4.34823	contribute	-0.2897429
-4.34823	contributes	-0.2897429
-4.34823	contributions	-0.3010105
-3.570079	control	-0.3602367
-4.34823	controversial	-0.2926717
-4.34823	convalescence	-0.2781136
-3.871109	conversation	-0.1598785
-4.34823	conversations	-0.3005818
-4.34823	converts	-0.2897429
-4.0472	convicted	-0.2078544
-4.34823	convictions	-0.2781136
-4.34823	cooking	-0.2781136
-4.0472	cooperation	-0.221186
-4.34823	coordination	-0.2996839
-4.34823	corner	-0.2926717
-4.0472	correct	-0.2079751
-4.34823	correspondent	-0.2926717
-4.34823	corrupt	-0.300991
-4.34823	corruption	-0.2903422
-4.34823	cost	-0.2875383
-4.34823	costs	-0.2781136
-4.0472	coughing	-0.2171092
-3.0472	could	-0.2085221
-4.34823	couldn	-0.298882
-4.34823	council	-0.3008157
-4.34823	count	-0.2975685
-3.306838	countries	-0.3673803
-3.269049	country	-0.2337352
-4.34823	countryside	-0.2963101
-4.34823	coup	-0.2781136
-4.34823	couple	-0.2875383
-3.64926	course	-0.4625432
-4.0472	court	-0.1984804
-4.34823	courts	-0.2926717
-3.871109	cover	-0.149877
-4.34823	covering	-0.2781136
-4.34823	covers	-0.2897429
-4.0472	crazy	-0.2100416
-3.74617	create	-0.137293
-4.0472	created	-0.1967916
-4.34823	creation	-0.2875383
-4.34823	creatures	-0.2781136
-4.34823	credited	-0.2980395
-4.34823	creedal	-0.300952
-4.34823	creep	-0.3002306
-4.34823	cries	-0.2875383
-3.64926	crime	-0.07986498
-4.34823	crimes	-0.3002306
-4.34823	criminals	-0.300133
-4.0472	crises	-0.5892911
-3.871109	crisis	-0.1734733
-4.34823	criticism	-0.2781136
-4.34823	crooked	-0.3010105
-4.0472	cross	-0.1951169
-4.34823	crossroads	-0.288261
-4.34823	crouched	-0.298745
-4.34823	crowned	-0.3010105
-4.34823	crude	-0.3009326
-3.570079	cultural	-0.2280945
-3.74617	culture	-0.09877944
-3.64926	cup	-0.4260422
-4.34823	cups	-0.2875383
-4.34823	curbing	-0.2759934
-4.34823	cured	-0.288261
-4.34823	currency	-0.288261
-3.74617	current	-0.3351684
-3.74617	currently	-0.1457773
-4.0472	custom	-0.1965232
-4.0472	customer	-0.1987886
-4.34823	customers	-0.288261
-3.64926	cut	-0.7523136
-3.871109	daily	-0.1724531
-4.34823	danger	-0.3001526
-3.74617	dangerous	-0.1222866
-4.0472	dark	-0.218819
-3.393988	daughter	-0.1024597
-4.0472	daughters	-0.196709
-4.0472	dawn	-0.2089393
-4.34823	dawning	-0.2988625
-3.092958	day	-0.4367541
-4.34823	day-dreamy	-0.288261
-3.14411	days	-0.2903604
-3.570079	dead	-0.1810687
-3.871109	deal	-0.8421075
-4.0472	dealing	-0.5990695
-3.74617	dear	-0.322441
-3.393988	death	-0.2255829
-4.34823	debate	-0.3009715
-4.34823	deceiving	-0.2759934
-3.503132	decided	-0.6970583
-3.74617	decision	-0.3207303
-4.0472	decisions	-0.1846975
-4.34823	decisive	-0.3009326
-4.34823	declared	-0.3007572
-4.34823	decorated	-0.2980395
-4.34823	decree	-0.3010105
-3.74617	deep	-0.1458747
-4.0472	deeply	-0.2100416
-4.34823	defeated	-0.2781136
-4.34823	defeated…	-0.2978433
-4.0472	defend	-0.1967709
-4.0472	defense	-0.5885683
-4.34823	deficiency	-0.3010105
-4.34823	degree	-0.288261
-4.34823	delay	-0.2978237
-4.34823	delegate	-0.2875383
-4.34823	delegates	-0.288261
-3.871109	delegation	-0.412457
-4.34823	delegations	-0.2994494
-4.34823	deliberately	-0.3006792
-3.871109	demand	-0.1358097
-4.34823	democracy	-0.288261
-3.871109	democratic	-0.1749014
-4.34823	demonstrated	-0.3006402
-3.871109	demonstrators	-0.1386641
-4.34823	denied	-0.3002501
-4.34823	dentist	-0.2781136
-3.871109	department	-0.1592107
-4.34823	departments	-0.3007767
-4.34823	depend	-0.298745
-4.34823	depending	-0.298745
-3.871109	depression	-0.1418793
-4.0472	deprived	-0.5885683
-4.34823	depths	-0.2875383
-4.34823	deputies	-0.3010105
-4.34823	derivatives	-0.3009131
-4.0472	describe	-0.2176209
-4.34823	described	-0.2993516
-4.34823	description	-0.2875383
-3.871109	desert	-0.1568146
-4.34823	deserted	-0.2781136
-4.0472	designated	-0.2183088
-4.34823	designed	-0.2935842
-4.0472	desire	-0.1965645
-4.34823	desires	-0.2875383
-4.34823	desk	-0.2903422
-4.34823	despaired	-0.2875383
-3.871109	despite	-0.8200614
-4.34823	despotism	-0.2781136
-4.34823	destroyed	-0.3006987
-4.34823	detail	-0.288261
-4.0472	details	-0.1876579
-4.34823	detention	-0.288261
-4.0472	determined	-0.2083972
-4.34823	determines	-0.2759934
-4.34823	developed	-0.3004647
-3.74617	development	-0.314147
-4.34823	developments	-0.2781136
-4.34823	device	-0.3010105
-3.871109	devil	-0.1623182
-4.34823	devils	-0.3010105
-4.34823	dialed	-0.2986275
-3.871109	dialog	-0.1748038
-4.34823	diamonds	-0.2781136
-4.34823	dictatorial	-0.3009715
-2.933257	did	-0.7783351
-3.092958	didn	-2.233381
-4.0472	die	-0.2080958
-4.0472	died	-0.195179
-4.34823	diet	-0.2781136
-4.34823	difference	-0.3005818
-4.34823	differences	-0.3005818
-3.64926	different	-0.124393
-3.74617	difficult	-0.3318396
-4.34823	difficulty	-0.300991
-4.34823	dignified	-0.3004452
-4.34823	diligent	-0.2781136
-4.34823	diligently	-0.2897429
-4.34823	dinar	-0.2781136
-3.74617	dinner	-0.1199758
-4.34823	diplomatic	-0.2980395
-3.570079	direct	-0.2133707
-4.34823	directed	-0.2897429
-3.74617	direction	-0.5753902
-4.0472	directly	-0.1870252
-4.0472	director	-0.5885683
-4.0472	dirhams	-0.1870252
-4.0472	dirty	-0.2201508
-4.0472	disagreement	-0.2184069
-4.34823	disappearance	-0.2875383
-4.34823	disapproved	-0.2875383
-4.34823	disarray	-0.2781136
-4.34823	discover	-0.3002501
-3.871109	discovered	-0.1454474
-4.34823	discrimination	-0.2998792
-4.34823	discuss	-0.2926717
-4.34823	discussed	-0.2926717
-4.34823	discussing	-0.2759934
-4.34823	discussion	-0.3007767
-4.34823	disease	-0.2781136
-4.34823	disgust	-0.2759934
-4.34823	dismissed	-0.2999769
-4.34823	display	-0.3005622
-4.34823	dissertation	-0.2781136
-4.34823	dissipate	-0.2781136
-4.34823	dissolving	-0.2759934
-4.34823	distance	-0.3009131
-4.34823	distinguish	-0.3006207
-4.34823	distinguished	-0.3010105
-4.34823	distinguishes	-0.3005233
-4.34823	distract	-0.300055
-4.34823	distress	-0.2903422
-4.34823	distributed	-0.3010105
-3.64926	district	-0.1228299
-4.34823	divide	-0.2998792
-4.34823	divided	-0.3006207
-3.871109	divorce	-0.1472205
-2.95029	do	-0.7220581
-3.64926	doctor	-0.121438
-4.0472	doctors	-0.2089393
-3.202102	does	-1.223226
-3.269049	doesn	-1.895479
-4.0472	doing	-0.2217319
-4.34823	dollar	-0.2897429
-3.570079	dollars	-0.1871452
-4.34823	domestic	-0.3010105
-4.34823	dominoes	-0.2980395
-2.757166	don	-2.890503
-3.74617	done	-0.1119161
-4.34823	doomed	-0.3009715
-3.0472	door	-0.2499249
-4.34823	doorbell	-0.300991
-4.34823	doors	-0.2994298
-4.34823	door…	-0.2979807
-4.34823	dots	-0.3006207
-4.34823	doubled	-0.2975685
-3.64926	doubt	-0.08378006
-3.172139	down	-0.373331
-4.0472	dozens	-0.5885683
-4.34823	dragged	-0.3002306
-4.34823	drained	-0.3010105
-4.34823	dramatic	-0.300991
-4.34823	drank	-0.2759934
-4.34823	draw	-0.2897429
-4.34823	drawing	-0.2926717
-4.0472	dream	-0.2067063
-4.34823	dreamed	-0.2963101
-4.34823	dreaming	-0.2875383
-3.871109	dreams	-0.141774
-4.34823	dregs	-0.2875383
-4.34823	dress	-0.2975096
-4.34823	dressed	-0.2903422
-3.871109	drink	-0.1631618
-4.0472	drinking	-0.2081561
-4.0472	driven	-0.2203268
-4.34823	drivers	-0.300991
-4.34823	dropped	-0.2926717
-4.0472	drowning	-0.2004697
-4.34823	drug	-0.3009131
-4.34823	drugged	-0.288261
-4.34823	drunk	-0.300952
-4.0472	due	-0.5907729
-3.0472	during	-0.9851297
-3.74617	duty	-0.1263216
-3.871109	e	-0.8443182
-3.393988	each	-0.3704101
-3.871109	early	-0.1735516
-4.34823	earrings	-0.2781136
-4.0472	ears	-0.2074318
-4.0472	earth	-0.1870252
-4.34823	earthquake	-0.3008157
-4.34823	eastern	-0.3010105
-3.871109	easy	-0.1731792
-3.871109	eat	-0.1546917
-4.34823	eavesdropping	-0.298745
-4.0472	economic	-0.2217319
-3.74617	economy	-0.1168199
-4.34823	editor	-0.2926717
-4.34823	editorial	-0.300991
-4.0472	educated	-0.2209518
-3.503132	education	-0.2782433
-3.871109	educational	-0.175838
-4.0472	effect	-0.2195442
-4.34823	effects	-0.2875383
-3.871109	effort	-0.1601817
-3.44514	efforts	-0.248854
-4.34823	eight	-0.3008547
-4.34823	eighth	-0.3010105
-3.871109	either	-0.1610698
-4.34823	elected	-0.300952
-4.34823	election	-0.2988625
-3.64926	elections	-0.09727367
-4.0472	electric	-0.2217903
-3.871109	electricity	-0.4120348
-4.34823	electrified	-0.288261
-4.34823	elements	-0.2875383
-3.74617	else	-0.1085947
-4.0472	email	-0.2194071
-4.34823	embassies	-0.2781136
-4.34823	embrace	-0.3006792
-4.0472	embraced	-0.2193875
-4.34823	emergency	-0.3002697
-4.34823	emigrating	-0.2781136
-4.34823	emotions	-0.2875383
-4.34823	employ	-0.3001526
-4.34823	employee	-0.300133
-4.0472	employees	-0.2083972
-4.34823	employment	-0.300991
-4.34823	emptiness	-0.2875383
-4.0472	empty	-0.2200335
-4.34823	en	-0.2875383
-4.34823	enable	-0.2990973
-4.34823	encircled	-0.3007962
-4.34823	encounter	-0.3004647
-4.34823	encouragement	-0.2875383
-3.0472	end	-0.6869264
-3.393988	ended	-0.2188822
-4.34823	ends	-0.3004257
-4.34823	endure	-0.3002501
-4.0472	energy	-0.1870252
-4.34823	engineer	-0.2980395
-4.34823	engrossed	-0.2926717
-4.34823	enhance	-0.3003087
-4.34823	enjoying	-0.2759934
-4.34823	enlightened	-0.3006207
-4.0472	enough	-0.1974514
-4.34823	enriched	-0.3010105
-4.34823	ensemble	-0.2963101
-3.74617	enter	-0.09616493
-3.503132	entered	-0.2971545
-4.0472	entering	-0.1964406
-4.34823	entertain	-0.3010105
-4.34823	enthusiasm	-0.2781136
-4.0472	enthusiastic	-0.6009679
-4.34823	entire	-0.300991
-4.34823	entity	-0.3007572
-3.871109	entrance	-0.400829
-4.34823	entrapped	-0.2978237
-4.34823	environment	-0.2926717
-4.34823	environmental	-0.3009715
-4.34823	epidemic	-0.3008157
-4.0472	episode	-0.2082164
-4.34823	equality	-0.3005818
-3.871109	era	-0.1603231
-4.34823	erased	-0.2988625
-4.0472	erasing	-0.6012802
-4.34823	erected	-0.298745
-4.34823	error	-0.298745
-4.34823	errors	-0.2781136
-4.34823	escape	-0.2980395
-4.34823	escaped	-0.300991
-3.64926	especially	-0.09826899
-4.0472	established	-0.1957792
-4.0472	establishing	-0.1889205
-4.34823	establishment	-0.300952
-4.0472	establishments	-0.1988091
-4.34823	esteem	-0.2781136
-4.34823	esteemed	-0.3008741
-4.0472	estimated	-0.1953861
-4.34823	evaluate	-0.2759934
-3.14411	even	-0.3790028
-3.570079	evening	-0.346576
-4.34823	event	-0.2963101
-3.64926	events	-0.2453628
-4.34823	ever	-0.3008157
-3.306838	every	-0.1387139
-4.0472	everyone	-0.1979868
-3.14411	everything	-0.3667105
-4.34823	evidence	-0.2875383
-4.0472	evil	-0.1984187
-3.871109	exactly	-0.1530106
-4.0472	exalted	-0.5791436
-4.34823	exam	-0.288261
-4.34823	examined	-0.2996253
-4.34823	examiner	-0.3002501
-3.871109	example	-0.3895807
-4.34823	examples	-0.2875383
-4.34823	exams	-0.2978629
-4.34823	exceed	-0.2935842
-4.34823	excelled	-0.3009715
-3.871109	excellency	-0.4008909
-4.0472	excellent	-0.1989118
-3.503132	except	-0.170578
-4.34823	exception	-0.2875383
-4.0472	exchanged	-0.2210104
-4.34823	exchanges	-0.2903422
-4.34823	excited	-0.2903422
-4.34823	excitement	-0.3008352
-4.34823	excluding	-0.3010105
-4.34823	excuse	-0.2875383
-3.871109	executive	-0.4258324
-4.34823	exercise	-0.2996839
-4.34823	exercises	-0.3004257
-4.34823	exert	-0.3005037
-4.34823	exerting	-0.2926717
-4.34823	exertion	-0.2875383
-4.0472	exerts	-0.2204831
-4.34823	exhibition	-0.3004647
-4.0472	existence	-0.1846975
-4.34823	exists	-0.2926717
-4.0472	exit	-0.22142
-4.34823	expand	-0.2759934
-4.34823	expect	-0.2963101
-4.34823	expectations	-0.2781136
-3.871109	expected	-0.1496079
-4.0472	expects	-0.2134111
-4.34823	expel	-0.2990386
-3.871109	expenses	-0.1364504
-3.44514	experience	-0.400876
-4.34823	experienced	-0.2935842
-4.0472	experts	-0.2057168
-4.0472	explain	-0.2202095
-4.34823	explained	-0.2897429
-4.34823	explaining	-0.2897429
-4.34823	exploited	-0.2897429
-4.0472	explosion	-0.1988707
-4.34823	exports	-0.288261
-4.0472	exposed	-0.5907729
-4.34823	expressed	-0.2986275
-4.34823	expression	-0.2965463
-4.34823	expressions	-0.2875383
-4.34823	expulsion	-0.2875383
-4.34823	extension	-0.2903422
-3.570079	extent	-0.3415484
-4.34823	extracted	-0.2935842
-4.0472	extreme	-0.6019626
-4.34823	extremely	-0.300991
-4.34823	eyebrows	-0.2903422
-3.503132	eyes	-0.05841997
-4.34823	f	-0.2759934
-3.306838	face	-0.2346126
-4.0472	faces	-0.1889205
-4.34823	facilitate	-0.300952
-3.871109	facing	-0.1507864
-3.34823	fact	-0.9629759
-4.0472	factions	-0.1966471
-4.34823	factor	-0.2926717
-4.34823	factory	-0.2897429
-4.34823	facts	-0.2903422
-4.0472	fail	-0.2128944
-4.34823	failed	-0.2781136
-4.34823	failures	-0.2989408
-4.34823	fair	-0.3002501
-3.871109	faith	-0.4067125
-4.34823	fake	-0.3010105
-3.871109	fall	-0.1387915
-4.34823	fallen	-0.298745
-4.34823	fame	-0.2781136
-3.871109	families	-0.4030318
-3.14411	family	-0.2020611
-3.74617	famous	-0.3321736
-4.34823	fanatics	-0.2781136
-4.34823	fans	-0.300133
-3.570079	far	-0.5980877
-4.34823	farm	-0.3010105
-4.34823	farmers	-0.2926717
-4.34823	fast	-0.2993516
-4.0472	faster	-0.6014753
-4.34823	fate	-0.2926717
-3.269049	father	-0.2209969
-4.34823	fatigue	-0.2903422
-4.34823	faucet	-0.2963101
-4.0472	faults	-0.1983365
-4.34823	favor	-0.2903422
-4.34823	favorite	-0.3010105
-4.34823	fax	-0.300991
-4.34823	façade	-0.288261
-3.871109	fear	-0.1465747
-4.34823	feared	-0.3006987
-4.34823	feed	-0.2903422
-3.306838	feel	-0.4945538
-3.871109	feeling	-0.162479
-3.570079	feelings	-0.3569312
-3.871109	feet	-0.1386641
-3.503132	fell	-0.3373286
-3.503132	felt	-0.1851712
-4.34823	female	-0.2999573
-4.34823	females	-0.2781136
-4.34823	feminist	-0.300991
-4.34823	ferocity	-0.2963101
-4.34823	festival	-0.2781136
-4.34823	festivals	-0.2996839
-4.34823	fetus	-0.288261
-3.14411	few	-0.5068289
-4.34823	fiancee	-0.3003672
-4.0472	field	-0.1942044
-4.34823	fields	-0.2875383
-4.0472	fifteen	-0.2212055
-3.871109	fifty	-0.1759744
-4.34823	fifty-seven	-0.3009326
-3.871109	fight	-0.1506831
-3.871109	fighting	-0.1506625
-4.0472	figure	-0.2162813
-3.871109	filled	-0.1676536
-4.0472	film	-0.1966471
-4.0472	final	-0.2217319
-4.34823	finally	-0.3007572
-4.34823	finals	-0.2963101
-4.34823	financial	-0.300991
-3.503132	find	-0.3161257
-3.871109	fine	-0.1388551
-4.0472	finish	-0.2196421
-3.64926	finished	-0.09299697
-3.871109	fire	-0.1374096
-3.0472	first	-0.09425306
-4.34823	fish	-0.3010105
-4.34823	fists	-0.2781136
-4.34823	fit	-0.2781136
-3.570079	five	-0.1081694
-4.34823	flag	-0.2903422
-4.34823	flags	-0.300991
-4.34823	flee	-0.2989408
-4.34823	flick	-0.2875383
-4.34823	floating	-0.2759934
-4.34823	flood	-0.3009715
-3.74617	floor	-0.5656719
-4.34823	flour	-0.2926717
-4.34823	flourished	-0.3008352
-4.34823	flourishing	-0.2875383
-4.34823	flow	-0.2988625
-4.34823	flowed	-0.2926717
-3.871109	flowers	-0.3942366
-4.0472	flowing	-0.2193875
-4.34823	flows	-0.3005233
-4.34823	flying	-0.2926717
-4.34823	focused	-0.298745
-3.871109	follow	-0.1676138
-4.34823	followed	-0.2759934
-4.34823	followers	-0.2935842
-3.74617	following	-0.104069
-4.34823	follows	-0.3007182
-3.306838	food	-0.510118
-4.34823	foods	-0.2897429
-2.092958	for	-0.5358088
-4.0472	forbade	-0.2193875
-4.0472	forbid	-0.2090597
-4.0472	forbidden	-0.221537
-4.0472	forbids	-0.2217903
-4.34823	force	-0.2926717
-4.0472	forced	-0.5907729
-3.44514	forces	-0.02254158
-4.34823	forefront	-0.288261
-3.64926	foreign	-0.2784028
-4.34823	forest	-0.3009715
-4.0472	forever	-0.5892911
-3.74617	forget	-0.1149194
-4.34823	forgive	-0.2999769
-4.34823	forgiveness	-0.2781136
-4.34823	forgot	-0.3002306
-4.34823	form	-0.3003087
-4.34823	formation	-0.2875383
-4.34823	formed	-0.2935842
-4.34823	former	-0.3009326
-4.34823	forms	-0.3008936
-4.0472	forty	-0.2089393
-3.64926	forward	-0.2240443
-3.172139	found	-0.324578
-4.0472	founding	-0.2006742
-4.34823	fountain	-0.2781136
-4.0472	four	-0.221186
-4.34823	four-star	-0.300952
-4.34823	frame	-0.2781136
-4.34823	frames	-0.2903422
-4.34823	framework	-0.2875383
-4.34823	frank	-0.2980395
-3.74617	frankly	-0.3070878
-4.0472	free	-0.193082
-3.503132	freedom	-0.139604
-4.34823	fresh	-0.3008352
-4.34823	fried	-0.2875383
-3.503132	friend	-0.04943106
-3.503132	friends	-0.157808
-4.34823	frightening	-0.3010105
-2.302907	from	-0.3549807
-3.34823	front	-0.9684974
-4.0472	fuel	-0.1972659
-3.64926	full	-0.1107231
-4.34823	fully	-0.3010105
-4.34823	fun	-0.2875383
-4.34823	fundamentals	-0.2903422
-4.34823	funeral	-0.2781136
-4.34823	furthest	-0.3005622
-3.503132	future	-0.1599735
-4.34823	gain	-0.2759934
-3.871109	game	-0.1364504
-4.34823	games	-0.3006402
-4.34823	gang	-0.2978629
-4.34823	gangs	-0.2875383
-4.34823	garage	-0.2994689
-4.0472	garden	-0.1901166
-4.0472	gardens	-0.6009093
-4.0472	gas	-0.2110013
-4.34823	gathered	-0.3008936
-3.871109	gave	-0.1256471
-4.34823	gaze	-0.2978433
-3.74617	general	-0.107787
-4.0472	generation	-0.1988913
-4.34823	generations	-0.2781136
-4.34823	generous	-0.300991
-2.916867	get	-0.2080081
-3.871109	gets	-0.1685067
-3.64926	getting	-0.1246659
-4.34823	gift	-0.3006597
-3.64926	girl	-0.06451401
-4.34823	girls…I	-0.3002697
-3.570079	give	-0.3671707
-4.34823	given	-0.2759934
-4.34823	givens	-0.2781136
-4.0472	giving	-0.2134706
-4.0472	glasses	-0.5990695
-4.34823	glorious	-0.3008936
-4.0472	glory	-0.2113606
-4.34823	glowed	-0.288261
-2.95029	go	-0.5292089
-3.871109	goal	-0.1492558
-4.0472	goals	-0.1955931
-4.34823	goes	-0.2988625
-3.44514	going	-0.7984963
-4.0472	gold	-0.2213615
-3.871109	golden	-0.1759549
-4.0472	gone	-0.2132919
-3.269049	good	-0.1661405
-4.34823	goodbye	-0.3010105
-3.871109	goods	-0.1643241
-3.172139	got	-0.4088104
-4.0472	gotten	-0.6020016
-4.34823	governatorates	-0.288261
-3.0472	government	-0.2755189
-4.0472	governments	-0.2194659
-4.34823	governor	-0.3005233
-4.34823	grab	-0.2990386
-4.34823	grabbed	-0.2986275
-4.34823	grade	-0.2926717
-4.34823	grades	-0.2926717
-4.34823	graduated	-0.2988625
-4.34823	graft	-0.2926717
-4.34823	grand	-0.300952
-4.34823	grandfather	-0.288261
-4.34823	grandmother	-0.3006012
-4.34823	grant	-0.2978237
-4.34823	grater	-0.2759934
-3.570079	great	-0.2258121
-4.34823	greater	-0.3010105
-4.34823	greatly	-0.3006597
-4.34823	greed	-0.2781136
-4.34823	greet	-0.2978237
-4.34823	greeted	-0.2999769
-4.34823	greeting	-0.2897429
-4.34823	greetings	-0.2897429
-4.34823	grenade	-0.2935842
-4.0472	grew	-0.2206589
-4.34823	groom	-0.2989408
-3.64926	ground	-0.4540816
-3.74617	group	-1.027901
-4.34823	groups	-0.2781136
-4.34823	grove	-0.2980395
-4.0472	grow	-0.2084575
-4.34823	growing	-0.300952
-4.0472	grows	-0.1876579
-3.74617	growth	-0.2895283
-4.34823	guaranteeing	-0.3009715
-4.34823	guards	-0.300133
-4.0472	guest	-0.2133515
-4.0472	guests	-0.2187798
-4.34823	guidelines	-0.2993516
-4.34823	guilt	-0.2781136
-4.0472	gulp	-0.2087788
-4.34823	gunfire	-0.2963101
-4.34823	gunmen	-0.3010105
-4.34823	guys	-0.288261
-4.34823	gypsies	-0.300991
-4.34823	ha	-0.3007962
-2.64066	had	-0.2106464
-3.871109	hair	-0.4099379
-3.871109	half	-0.1745497
-3.64926	hall	-0.08208499
-4.34823	halls	-0.2975096
-4.34823	hamas	-0.3010105
-4.34823	hamburgers	-0.2903422
-4.34823	hamlets	-0.2903422
-3.269049	hand	-0.34079
-4.34823	handled	-0.3003087
-3.44514	hands	-0.2664807
-4.34823	hang	-0.3005818
-4.34823	hanging	-0.3009326
-4.0472	happen	-0.1981925
-3.306838	happened	-0.2611704
-3.570079	happening	-0.2160478
-4.0472	happens	-0.2130733
-4.34823	happily	-0.3008157
-3.64926	happiness	-0.451837
-3.44514	happy	-0.04358643
-4.34823	harbors	-0.2935842
-3.74617	hard	-0.1071908
-4.34823	hardship	-0.2781136
-4.34823	harm	-0.2759934
-4.34823	harmed	-0.2759934
-4.34823	harmony	-0.2926717
-4.34823	harshness	-0.2781136
-2.695018	has	-0.3850175
-4.34823	hasn	-0.298882
-4.34823	hate	-0.2990386
-4.34823	hated	-0.3009715
-4.34823	hatred	-0.2975096
-2.509381	have	-0.3261302
-3.393988	haven	-1.66061
-4.0472	having	-0.2209518
-2.136043	he	-0.3736287
-3.503132	head	-0.1532228
-3.74617	headed	-0.3069005
-4.34823	headlines	-0.2963101
-4.34823	headscarf	-0.2781136
-3.34823	health	-0.1772298
-4.34823	hear	-0.3007377
-3.570079	heard	-0.2108224
-3.393988	heart	-0.1266434
-4.34823	hearts	-0.2975096
-4.34823	heaven	-0.3002892
-4.34823	heavenly	-0.3010105
-3.44514	heavy	-0.1753631
-4.0472	height	-0.2090597
-4.34823	heinous	-0.3010105
-3.871109	held	-0.1662212
-4.0472	hell	-0.5791436
-4.0472	hello	-0.2090196
-3.34823	help	-0.1617252
-4.34823	helped	-0.2999769
-3.871109	helps	-0.1472205
-2.258325	her	-0.163159
-3.234287	here	-0.2846356
-4.34823	here…	-0.3005427
-4.34823	heritage	-0.2781136
-4.0472	hero	-0.5885683
-4.34823	heroism	-0.2903422
-4.34823	hers	-0.2903422
-3.64926	herself	-0.2347805
-4.34823	hesitant	-0.2926717
-4.34823	hesitantly	-0.2975096
-4.34823	hesitate	-0.2897429
-4.34823	hesitating	-0.2993516
-4.34823	hi	-0.3010105
-4.0472	hide	-0.2099615
-4.34823	hiding	-0.3009326
-3.393988	high	-0.1416556
-4.0472	higher	-0.2111011
-4.0472	highest	-0.221186
-4.34823	highly	-0.3010105
-4.34823	hill	-0.298745
-2.33963	him	-0.602824
-3.34823	himself	-0.07790454
-2.100257	his	-0.2267806
-3.74617	historic	-0.3354999
-4.34823	historical	-0.300991
-3.74617	history	-0.3211536
-4.34823	hold	-0.2875383
-3.74617	holding	-0.3073375
-4.0472	holiday	-0.1854607
-3.44514	home	-0.2480846
-4.0472	homeland	-0.5791436
-3.74617	homeless	-0.3264996
-4.34823	honor	-0.288261
-3.503132	hope	-0.1491035
-4.34823	hopes	-0.2903422
-4.34823	hoping	-0.2897429
-4.34823	horrible	-0.3010105
-4.0472	hospice	-0.5975764
-3.871109	hospital	-0.3997131
-4.34823	host	-0.3006792
-4.34823	hostile	-0.300991
-4.34823	hot	-0.3009715
-3.74617	hotel	-0.3237848
-3.503132	hour	-0.1597334
-3.64926	hours	-0.09320657
-4.34823	hours…and	-0.3005233
-2.95029	house	-0.2190077
-4.34823	household	-0.3009715
-4.0472	houses	-0.2181909
-4.34823	housework	-0.300952
-4.34823	housing	-0.2989408
-3.14411	how	-0.5775596
-4.34823	hr	-0.3010105
-3.74617	huge	-0.1455238
-4.34823	hugging	-0.2926717
-3.871109	human	-0.1759744
-4.0472	humans	-0.1854607
-4.34823	humidity	-0.2781136
-4.34823	humiliation	-0.2875383
-3.393988	hundred	-0.2196464
-3.871109	hundreds	-0.4038525
-4.0472	hung	-0.6014557
-4.34823	hurt	-0.2990386
-3.306838	husband	-0.01488069
-4.34823	husbands	-0.2781136
-3.871109	i	-0.8443182
-4.34823	idea	-0.2875383
-4.34823	ideas	-0.288261
-4.34823	identity	-0.2875383
-2.791928	if	-0.6913418
-4.34823	ignorance	-0.2875383
-4.34823	ignorant	-0.2875383
-4.0472	ill	-0.1876579
-4.34823	illegal	-0.2781136
-4.34823	illegibility	-0.2781136
-4.0472	illness	-0.1971628
-4.34823	illnesses	-0.2903422
-4.34823	illusions…Therefore	-0.288261
-4.34823	image	-0.2875383
-4.0472	imagine	-0.2185051
-4.0472	immediate	-0.221576
-3.74617	immediately	-0.3009475
-4.0472	immerse	-0.2215565
-4.34823	immersed	-0.2926717
-4.34823	immigrating	-0.2897429
-4.34823	immune	-0.3010105
-4.34823	impact	-0.2875383
-4.34823	impatiently	-0.2781136
-4.34823	implemented	-0.2996839
-4.34823	implementing	-0.2759934
-4.34823	imply	-0.3004647
-4.34823	import	-0.3005233
-3.74617	importance	-0.5769202
-3.172139	important	-0.2135184
-4.34823	impossible	-0.2781136
-4.34823	impression	-0.2781136
-4.34823	imprisoned	-0.288261
-4.34823	imprisoning	-0.3010105
-4.34823	improve	-0.3010105
-1.719841	in	-0.8326174
-4.34823	inappropriate	-0.3002501
-4.0472	incapable	-0.5885683
-4.34823	inception	-0.2926717
-4.0472	incident	-0.2074318
-4.34823	incited	-0.2759934
-3.871109	includes	-0.1750577
-4.0472	income	-0.2083369
-3.871109	increase	-0.1502699
-4.34823	increased	-0.3004452
-4.34823	increasing	-0.3008741
-4.34823	incurably	-0.300991
-4.34823	indeed	-0.300991
-4.0472	independence	-0.2066256
-4.34823	independent	-0.3009131
-4.34823	indications	-0.2994298
-4.34823	individual	-0.3010105
-4.0472	individuals	-0.2102417
-4.34823	industrial	-0.2903422
-4.34823	industries	-0.2903422
-4.34823	industry	-0.2965463
-4.34823	inevitable	-0.3008936
-4.34823	inflamed	-0.2990386
-4.0472	influence	-0.1825065
-4.34823	influences	-0.2759934
-4.34823	influential	-0.2875383
-4.34823	inform	-0.2759934
-3.64926	information	-0.2366516
-4.34823	informed	-0.3009715
-4.0472	informing	-0.2174438
-4.34823	informs	-0.3005233
-3.871109	inhabitants	-0.4119745
-4.34823	initiated	-0.2935842
-4.0472	initiative	-0.2105417
-4.0472	injured	-0.218132
-4.0472	injuries	-0.5791436
-4.34823	injustice	-0.3008352
-4.34823	inlaid	-0.2980395
-4.0472	inner	-0.2206003
-4.34823	innocence	-0.2978629
-4.0472	innocent	-0.2208932
-4.34823	inquire	-0.2999378
-4.34823	inquired	-0.2999378
-3.64926	inside	-0.2494663
-4.34823	insist	-0.298745
-4.0472	insisted	-0.2148189
-3.74617	instead	-1.027901
-4.0472	institutes	-0.5913723
-4.34823	instituting	-0.300991
-4.0472	instructions	-0.2123173
-4.34823	insult	-0.3001721
-4.34823	insults	-0.2781136
-4.34823	insurgency	-0.3004257
-4.34823	integrating	-0.300055
-4.0472	intellectual	-0.2111211
-4.34823	intellectuals	-0.288261
-4.0472	intelligence	-0.2111211
-4.0472	intends	-0.5907729
-3.871109	intention	-0.400829
-3.64926	interest	-0.2308616
-3.871109	interested	-0.8367398
-3.871109	interests	-0.4045897
-4.34823	interfere	-0.2926717
-4.34823	interference	-0.2875383
-3.871109	international	-0.1632421
-4.0472	internet	-0.1989118
-4.34823	interpret	-0.2759934
-4.34823	interrogate	-0.2988625
-4.34823	interrupt	-0.2975685
-4.34823	interview	-0.2980395
-2.933257	into	-0.7800146
-4.34823	intolerance	-0.2965463
-4.34823	intriguing	-0.2965463
-4.34823	introduced	-0.2990386
-4.34823	invaders	-0.2903422
-4.34823	invading	-0.3001526
-4.34823	invention	-0.2875383
-4.34823	investigator	-0.3002501
-3.871109	investment	-0.4175906
-4.34823	investments	-0.2926717
-4.34823	investors	-0.2781136
-4.34823	invitations	-0.2897429
-4.0472	invited	-0.2159655
-4.34823	involvement	-0.2926717
-4.0472	iron	-0.1952204
-1.988395	is	-0.4843003
-3.871109	isn	-0.8429501
-4.34823	isolation	-0.3009715
-3.64926	issue	-0.09756421
-3.44514	issued	-0.2355616
-3.74617	issues	-0.3002293
-2.352595	it	-0.6667669
-4.34823	it-	-0.3008936
-2.780029	its	-0.06283261
-3.74617	itself	-0.3066506
-4.34823	jacket	-0.2903422
-4.34823	janitors	-0.3008741
-4.34823	jeeps	-0.300952
-4.34823	jihad	-0.2781136
-3.64926	job	-0.07886985
-3.871109	jobs	-0.167594
-4.34823	join	-0.2759934
-3.871109	joined	-0.8200614
-4.34823	journalists	-0.2994494
-4.0472	journey	-0.5791436
-3.871109	joy	-0.1750381
-4.0472	judge	-0.208839
-4.0472	juice	-0.2134309
-4.34823	jumbled	-0.3009326
-4.34823	jumping	-0.3005233
-3.306838	just	-0.1045074
-4.34823	justice	-0.2903422
-4.34823	justified	-0.2781136
-3.44514	keep	-0.1704413
-4.0472	keeping	-0.221186
-4.34823	keeps	-0.3006207
-3.74617	kept	-0.1458942
-4.34823	kettle	-0.2903422
-4.34823	kick	-0.2996839
-4.34823	kicks	-0.3004257
-4.34823	kidnapped	-0.3005233
-4.34823	kidney	-0.3009131
-4.34823	kill	-0.300952
-3.503132	killed	-0.1373572
-4.0472	killing	-0.2047859
-3.74617	kind	-0.5885482
-4.34823	kindergarten	-0.3009715
-4.34823	kinds	-0.2875383
-4.34823	kingdom	-0.3009715
-4.0472	kissed	-0.2207956
-4.34823	kisses	-0.298745
-4.34823	kitchen	-0.288261
-4.34823	knee	-0.2903422
-4.34823	kneels	-0.2926717
-3.74617	knew	-0.1324957
-4.34823	knocked	-0.2990386
-4.34823	knocks	-0.298745
-2.885832	know	-0.2796414
-4.0472	knowing	-0.2214395
-3.871109	knowledge	-0.4139214
-3.64926	known	-0.0714429
-3.64926	knows	-0.09544297
-3.871109	lack	-0.8316063
-4.34823	lacking	-0.2897429
-4.34823	lacks	-0.3009131
-4.34823	ladder	-0.2926717
-4.34823	laid	-0.3007377
-4.0472	lands	-0.1854607
-3.503132	language	-0.1714501
-3.871109	languages	-0.1414998
-3.306838	large	-0.3036964
-4.0472	largest	-0.2216344
-3.14411	last	-0.07188147
-4.34823	lasted	-0.3008547
-4.34823	lasting	-0.288261
-4.34823	lasts	-0.288261
-3.871109	late	-0.1340537
-4.0472	later	-0.1965232
-4.0472	laugh	-0.2097813
-3.503132	law	-0.05274288
-4.34823	lawyer	-0.3008936
-3.64926	lead	-0.4400761
-3.570079	leader	-0.3621446
-4.34823	leaders	-0.2926717
-3.570079	leadership	-0.5648663
-4.0472	leading	-0.5907729
-4.34823	leads	-0.2897429
-4.0472	lean	-0.2089795
-4.34823	leaned	-0.3006207
-3.74617	learn	-0.3122182
-3.74617	learned	-0.5863322
-4.0472	learning	-0.2214395
-3.871109	least	-0.1578925
-3.306838	leave	-0.09325433
-3.871109	leaving	-0.1506212
-4.0472	lecture	-0.2170501
-3.871109	led	-0.4122158
-3.117781	left	-0.2523822
-3.871109	legal	-0.1653236
-4.34823	legislation	-0.2963101
-4.34823	legs	-0.288261
-4.34823	lengthy	-0.3010105
-4.34823	lens	-0.2980395
-3.871109	less	-0.4250914
-3.64926	let	-0.1179682
-3.871109	letter	-0.161493
-4.0472	letters	-0.2170895
-4.34823	letting	-0.3005427
-3.44514	level	-0.5637614
-3.871109	levels	-0.1274156
-4.34823	liberated	-0.2975685
-4.34823	liberties	-0.2926717
-2.871109	life	-0.3576112
-4.34823	lifted	-0.2986275
-3.44514	light	-0.4075094
-4.34823	lighting	-0.3007182
-3.74617	lights	-0.3207102
-2.885832	like	-0.3151379
-4.0472	liked	-0.2097813
-4.34823	limelight	-0.2975096
-4.34823	limit	-0.2759934
-3.64926	limited	-0.1123904
-4.34823	limits	-0.2875383
-3.64926	line	-0.08345872
-4.34823	lines	-0.3009715
-4.34823	link	-0.2759934
-4.34823	linked	-0.300991
-4.34823	linking	-0.3010105
-4.34823	lips	-0.2903422
-4.34823	liquid	-0.300991
-4.34823	list	-0.2875383
-4.0472	listen	-0.5907729
-4.0472	listened	-0.5907729
-4.0472	listening	-0.5907729
-4.0472	lit	-0.2210104
-4.34823	literary	-0.3010105
-4.0472	literature	-0.2085579
-3.871109	little	-0.1512404
-3.34823	live	-0.5790203
-3.64926	lived	-0.265784
-3.64926	lives	-0.2645983
-3.871109	living	-0.1757015
-4.34823	loan	-0.300952
-3.871109	local	-0.1756235
-3.871109	located	-0.1603029
-3.871109	locked	-0.145322
-4.0472	logic	-0.5885683
-4.0472	logical	-0.1952204
-3.117781	long	-0.623895
-3.34823	longer	-0.2409488
-3.570079	look	-0.22273
-3.74617	looked	-0.3341919
-3.74617	looking	-0.3308162
-4.0472	looks	-0.2209908
-4.34823	lord	-0.300991
-3.64926	lose	-0.1222031
-4.34823	losing	-0.2781136
-4.0472	loss	-0.1974514
-4.34823	losses	-0.2975096
-3.871109	lost	-0.1374309
-3.269049	lot	-0.5520968
-4.34823	lots	-0.2875383
-4.34823	loud	-0.300991
-4.34823	louder	-0.2781136
-4.34823	loudest	-0.3009131
-3.069477	love	-0.009627208
-3.74617	loved	-0.1185253
-4.34823	lovely	-0.300991
-4.0472	loves	-0.219172
-4.34823	low	-0.3009131
-4.34823	lower	-0.3005037
-4.34823	lowering	-0.2986275
-4.34823	loyalty	-0.2781136
-4.34823	lucky	-0.3005233
-4.34823	lunch	-0.2903422
-4.34823	luxurious	-0.3009326
-4.34823	lying	-0.2903422
-4.34823	ma	-0.3010105
-4.0472	machine	-0.5791436
-3.306838	made	-0.3811514
-3.74617	magazine	-0.1229652
-4.34823	magic	-0.3005233
-4.0472	main	-0.2216539
-4.34823	maintained	-0.300991
-3.871109	major	-0.1759354
-3.14411	make	-0.1765266
-4.34823	makes	-0.3005233
-4.0472	making	-0.2195442
-4.34823	males	-0.300991
-3.026011	man	-0.07823427
-4.34823	maneuver	-0.2781136
-4.34823	manicure	-0.2999573
-4.0472	mankind	-0.2080555
-4.34823	manly	-0.3010105
-3.871109	manner	-0.1250122
-4.34823	manuscripts	-0.2994298
-3.117781	many	-0.2196938
-4.34823	march	-0.2875383
-4.34823	mark	-0.2759934
-3.871109	market	-0.3895807
-3.871109	markets	-0.1388127
-3.64926	marriage	-0.4609691
-4.34823	marriages	-0.2980395
-3.64926	married	-0.1096954
-4.0472	marries	-0.5996575
-4.34823	marry	-0.2903422
-4.34823	martyrdom	-0.3001526
-4.34823	martyrs	-0.3010105
-4.34823	massacre	-0.2963101
-4.34823	master	-0.2903422
-4.0472	match	-0.1982953
-4.0472	matches	-0.5791436
-4.34823	material	-0.300952
-4.34823	maternal	-0.2999573
-3.34823	matter	-0.1978995
-3.74617	matters	-0.1177358
-3.570079	may	-0.3945178
-4.34823	maybe	-0.2978433
-4.0472	mayor	-0.1988502
-2.615837	me	-0.5912915
-4.0472	mean	-0.2057168
-4.34823	meaning	-0.2997034
-3.570079	means	-0.07979462
-4.34823	measured	-0.2759934
-4.0472	meat	-0.1955931
-3.570079	media	-0.09983203
-3.871109	medical	-0.1759354
-4.34823	medications	-0.288261
-3.871109	medicine	-0.4021891
-4.34823	medium	-0.2897429
-3.74617	meet	-0.3284652
-3.570079	meeting	-0.3766427
-4.0472	meetings	-0.2081561
-4.34823	melt	-0.288261
-3.74617	member	-0.5799437
-4.0472	members	-0.2071699
-4.34823	membership	-0.2781136
-4.34823	memories	-0.3006792
-4.0472	memory	-0.2216734
-3.34823	men	-0.1917618
-4.34823	mentality	-0.2875383
-4.0472	mentally	-0.2217903
-4.34823	mentioned	-0.288261
-4.34823	mentioning	-0.3009326
-4.34823	mentions	-0.3006792
-4.0472	mercy	-0.1965232
-4.34823	merely	-0.3009715
-4.34823	message	-0.2897429
-4.34823	messengers	-0.3007572
-3.34823	met	-0.3054434
-4.34823	meters	-0.2996839
-4.34823	methods	-0.2994298
-4.0472	metro	-0.1989118
-4.34823	metros	-0.288261
-3.64926	middle	-0.4398851
-3.503132	might	-0.3381555
-4.34823	miles	-0.2781136
-3.393988	military	-0.1676421
-4.0472	militias	-0.2025924
-3.393988	million	-0.1674666
-3.64926	mind	-0.2385789
-4.34823	mine	-0.3009326
-3.64926	minister	-0.1025764
-4.0472	ministers	-0.1984393
-4.34823	minorities	-0.3009131
-4.34823	minute	-0.3009131
-4.0472	minutes	-0.2207566
-4.34823	miraculously	-0.3010105
-4.34823	miserliness	-0.2903422
-4.0472	miss	-0.21638
-4.34823	misses	-0.2986275
-3.871109	mission	-0.400829
-4.0472	mistake	-0.2127552
-4.0472	mixed	-0.2187602
-4.34823	mixing	-0.2980395
-4.34823	mixture	-0.2875383
-4.34823	model	-0.2926717
-4.34823	moderate	-0.300952
-4.0472	modern	-0.221186
-4.34823	modernist	-0.3009131
-4.34823	modernization	-0.2903422
-3.34823	moment	-0.1852691
-3.871109	moments	-0.1360661
-4.34823	monetary	-0.3008352
-3.44514	money	-0.02984828
-4.34823	monitoring	-0.2875383
-4.34823	monstrosity	-0.2875383
-3.570079	month	-0.1954905
-3.44514	months	-0.2520709
-4.0472	moon	-0.218564
-4.34823	moral	-0.3010105
-2.757166	more	-0.4394186
-3.34823	morning	-0.293782
-4.34823	morning…	-0.3006012
-3.64926	mosque	-0.08287971
-4.34823	mosques	-0.2903422
-3.172139	most	-0.7509012
-3.202102	mother	-0.2025545
-4.34823	mother-of-pearl	-0.2988625
-4.34823	mothers	-0.3010105
-4.34823	mountains	-0.3006987
-4.34823	mouth	-0.288261
-4.34823	moved	-0.3009326
-4.34823	movement	-0.2926717
-4.0472	movements	-0.2025924
-4.34823	moving	-0.2897429
-3.34823	much	-0.5689216
-4.34823	mufti	-0.2988625
-4.34823	municipal	-0.3010105
-4.0472	museum	-0.2173061
-3.871109	music	-0.1461366
-4.34823	musicians	-0.3008157
-3.117781	must	-0.2567602
-2.490898	my	-0.2811822
-3.570079	myself	-0.09031554
-4.34823	mysterious	-0.3006597
-3.570079	name	-0.3441136
-3.871109	named	-0.1754285
-4.34823	namely	-0.2963101
-4.0472	names	-0.2201899
-3.503132	nation	-0.1363907
-3.570079	national	-0.1078179
-4.34823	nationalist	-0.3008547
-4.34823	nationalities	-0.2897429
-4.34823	nationality	-0.288261
-4.34823	nationalize	-0.3010105
-3.74617	natural	-0.1411915
-4.34823	naturally	-0.288261
-3.871109	nature	-0.8316063
-4.34823	nautical	-0.3010105
-3.74617	near	-0.114752
-4.34823	nearby	-0.3009326
-4.0472	nearest	-0.2217903
-4.34823	nearness	-0.2875383
-4.34823	necessarily	-0.3009326
-3.74617	necessary	-0.1167157
-4.34823	necessities	-0.3007182
-4.34823	necessity	-0.2875383
-3.0472	need	-0.6449794
-4.34823	needed	-0.2897429
-3.234287	needs	-0.6389998
-4.34823	negatives	-0.2875383
-4.34823	neglect	-0.2781136
-4.34823	negotiate	-0.2999378
-3.74617	neighborhood	-0.105761
-4.34823	neighbors	-0.3009131
-3.871109	neither	-0.1666793
-4.0472	nerves	-0.1988502
-4.34823	nervous	-0.3003282
-4.34823	network	-0.288261
-3.306838	never	-0.05150168
-4.34823	never-ending	-0.3010105
-2.885832	new	-0.04223508
-3.570079	news	-0.3442899
-3.64926	newspaper	-0.2507355
-4.0472	newspapers	-0.2183088
-3.503132	next	-0.09601307
-4.34823	nice	-0.288261
-4.34823	nicotine	-0.2781136
-3.234287	night	-0.1327533
-4.34823	nightfall	-0.3006012
-4.34823	nights	-0.2926717
-3.74617	nine	-0.1443323
-2.829716	no	-0.5733821
-4.34823	nobility	-0.2903422
-4.34823	noble	-0.300991
-4.0472	nobody	-0.2217903
-4.34823	noisily	-0.288261
-4.34823	non-Arab	-0.3007962
-4.34823	nonsense	-0.2980395
-3.503132	nor	-0.06240295
-3.871109	normal	-0.1751553
-4.0472	north	-0.1846975
-4.34823	north-west	-0.2875383
-2.314807	not	-0.05204774
-4.0472	notable	-0.2216929
-4.34823	notes	-0.2781136
-3.74617	nothing	-0.1442345
-4.0472	notice	-0.2037312
-4.34823	noticed	-0.3009715
-4.34823	nourish	-0.3002697
-4.0472	novel	-0.2058179
-4.34823	novelist	-0.2875383
-3.026011	now	-0.2096536
-3.64926	nuclear	-0.2785588
-3.0472	number	-1.083547
-4.34823	numbers	-0.2875383
-4.0472	numerous	-0.2217903
-4.34823	nursing	-0.3010105
-3.871109	o	-0.8450396
-4.34823	oblivious	-0.2897429
-4.34823	observer	-0.2875383
-3.871109	obtain	-0.1759159
-4.34823	obvious	-0.2897429
-4.0472	occasion	-0.5791436
-4.34823	occasionally	-0.2926717
-3.570079	occupation	-0.3710838
-4.0472	occupied	-0.1951583
-4.34823	occupiers	-0.2781136
-4.34823	occupy	-0.2986275
-3.871109	occurred	-0.1580752
-4.0472	ocean	-0.2218098
-4.34823	ode	-0.2988625
-4.34823	odes	-0.2781136
-1.514446	of	-0.554212
-3.172139	off	-0.3303828
-3.871109	offer	-0.16652
-3.570079	offered	-0.09281036
-4.34823	offers	-0.2759934
-3.44514	office	-0.02791032
-3.871109	officer	-0.1485092
-4.34823	officers	-0.300133
-3.74617	official	-0.1458747
-4.34823	officially	-0.3008352
-3.871109	officials	-0.1585217
-4.34823	often	-0.3007962
-3.64926	oil	-0.1165606
-3.34823	old	-0.1387719
-4.34823	older	-0.3007377
-4.34823	olives	-0.288261
-2.280045	on	-0.6727101
-3.570079	once	-0.07508005
-2.666989	one	-0.3931302
-4.0472	ones	-0.1979868
-4.34823	onions	-0.2989408
-2.968019	only	-0.007913496
-4.34823	onto	-0.300991
-3.393988	open	-0.2134727
-3.64926	opened	-0.2321429
-3.74617	opening	-0.09721262
-4.34823	opens	-0.2759934
-3.570079	operation	-0.1983012
-4.0472	operations	-0.1981925
-3.306838	opinion	-0.1090748
-3.74617	opinions	-0.2993617
-4.0472	opportunities	-0.5791436
-3.570079	opportunity	-1.331136
-4.34823	opposed	-0.3005233
-4.0472	opposing	-0.2217513
-4.0472	opposite	-0.5791436
-4.0472	opposition	-0.5791436
-4.34823	oppresses	-0.2759934
-2.768447	or	-0.2174902
-3.64926	order	-0.7281879
-3.64926	organization	-0.4527239
-4.34823	organizations	-0.2781136
-4.34823	organized	-0.2781136
-4.34823	organizes	-0.2975685
-3.74617	origin	-0.2871165
-4.0472	original	-0.2110412
-4.0472	origins	-0.2075526
-3.202102	other	-0.1104577
-3.570079	others	-0.07741231
-4.34823	otherwise	-0.3007182
-2.916867	our	-0.09062731
-4.0472	ourselves	-0.5791436
-2.735446	out	-0.6057304
-4.34823	outer	-0.3009326
-4.34823	outlawing	-0.300952
-4.34823	outlying	-0.300991
-4.0472	outside	-0.1825065
-4.34823	outstanding	-0.3009131
-3.026011	over	-0.5601301
-4.0472	overcome	-0.2211079
-4.34823	overseas	-0.3008547
-4.34823	overshadowed	-0.3005233
-3.871109	own	-0.1755065
-4.0472	owned	-0.2108215
-4.34823	owners	-0.2875383
-4.0472	owns	-0.5946142
-4.34823	packages	-0.2897429
-4.0472	pages	-0.206121
-3.871109	paid	-0.1489449
-3.871109	pain	-0.1410567
-4.0472	painting	-0.2198965
-4.34823	paintings	-0.2781136
-4.34823	pairs	-0.2875383
-4.34823	palace	-0.2926717
-4.0472	pale	-0.2073512
-4.34823	palms	-0.2903422
-4.34823	panic	-0.288261
-4.34823	panting	-0.2988625
-4.34823	pants	-0.2989408
-3.74617	paper	-0.1112834
-4.0472	papers	-0.1988297
-4.34823	paradox	-0.2781136
-4.0472	parents	-0.2210494
-4.34823	parking	-0.3005622
-4.34823	parliaments	-0.2781136
-3.74617	part	-0.3084176
-4.34823	parted	-0.2926717
-4.34823	participant	-0.288261
-4.0472	participants	-0.5937018
-3.64926	participate	-1.195762
-3.74617	participated	-0.5906529
-4.0472	participating	-0.2134111
-3.74617	particularly	-0.1115577
-3.570079	parties	-0.07693008
-4.34823	partitioning	-0.2998792
-4.34823	partner	-0.2781136
-4.0472	partnership	-0.2184069
-3.871109	parts	-0.8316063
-4.0472	party	-0.1972453
-4.34823	passage	-0.2875383
-4.34823	passageway	-0.2781136
-4.34823	passageways	-0.2875383
-3.570079	passed	-0.1937219
-4.34823	passenger	-0.3010105
-4.34823	passerby	-0.2781136
-4.0472	passing	-0.6018652
-4.34823	passion	-0.2903422
-4.34823	passionately	-0.2993516
-4.34823	passport	-0.3009715
-3.570079	past	-0.08346777
-4.34823	paths	-0.3005818
-4.0472	patience	-0.2109613
-4.34823	patient	-0.3004452
-3.871109	patients	-0.1612714
-4.0472	pay	-0.2140858
-4.34823	pays	-0.3008547
-3.503132	peace	-0.1931075
-4.34823	peaceful	-0.3009715
-4.34823	pedicure	-0.288261
-4.34823	peel	-0.288261
-4.34823	pen	-0.3002306
-4.34823	penalty	-0.3010105
-2.704778	people	-0.3677635
-4.0472	percent	-0.1846975
-3.74617	percentage	-1.027901
-4.34823	perceptive	-0.2903422
-4.34823	perfectly	-0.300991
-4.0472	perform	-0.2180337
-4.0472	performance	-0.2037312
-4.34823	perfumed	-0.3010105
-3.503132	perhaps	-0.2020318
-3.64926	period	-0.08399415
-4.34823	periods	-0.3010105
-4.34823	perished	-0.288261
-4.34823	permissible	-0.2999573
-4.34823	permission	-0.2926717
-4.0472	permit	-0.2142642
-4.34823	permits	-0.288261
-4.0472	permitted	-0.5770234
-4.0472	persecuted	-0.5770234
-3.269049	person	-0.1344415
-3.871109	personality	-0.4014478
-4.34823	pervading	-0.2759934
-4.34823	phenomena	-0.3003282
-4.0472	phenomenon	-0.2037312
-4.34823	philosophy	-0.2875383
-3.74617	phone	-0.1108822
-4.34823	phrase	-0.3003282
-4.0472	physical	-0.2217513
-4.34823	physically	-0.2926717
-4.34823	picked	-0.3004257
-4.34823	picture	-0.3008936
-4.34823	pictures	-0.2978237
-4.34823	pictures…the	-0.3007182
-3.503132	piece	-0.6752734
-4.34823	pieces	-0.2781136
-4.34823	pig	-0.300991
-4.34823	piled	-0.3004257
-4.34823	pilgrims	-0.3006402
-4.34823	pilots	-0.2996839
-4.34823	pipe	-0.3010105
-2.968019	place	-0.1841303
-3.74617	places	-0.3123415
-3.74617	plan	-0.1057396
-3.871109	plane	-0.1395549
-4.34823	planes	-0.2935842
-4.34823	plant	-0.300991
-4.0472	plate	-0.211141
-3.871109	play	-0.1596155
-3.871109	played	-0.1655831
-4.0472	player	-0.2198769
-4.0472	players	-0.2099415
-4.34823	playing	-0.3010105
-4.0472	plays	-0.1952204
-4.34823	pleasant	-0.2903422
-4.0472	please	-0.1988913
-4.34823	pleased	-0.2980395
-4.34823	pleasure	-0.2781136
-4.34823	plenipotentiary	-0.2897429
-4.34823	pocket	-0.2781136
-3.74617	poet	-0.1087221
-3.570079	poetry	-0.2185248
-4.34823	poets	-0.2978629
-3.64926	point	-0.09003079
-4.0472	points	-0.2072707
-3.503132	police	-0.2075617
-3.74617	policy	-0.1102692
-4.34823	politely	-0.3009131
-3.306838	political	-0.06520975
-3.74617	politics	-0.5846729
-3.871109	poor	-0.152435
-4.34823	pop	-0.3009715
-3.871109	popular	-0.1760328
-4.34823	popularity	-0.2875383
-4.34823	port	-0.2903422
-3.871109	position	-0.1567942
-4.0472	positions	-0.211141
-4.0472	possess	-0.2190544
-4.0472	possession	-0.2089995
-4.0472	possibility	-0.5885683
-3.44514	possible	-0.400876
-4.0472	possibly	-0.2197987
-4.0472	post	-0.6019042
-4.34823	postponed	-0.2781136
-4.0472	pound	-0.2195442
-4.34823	pounds	-0.2975096
-4.0472	poured	-0.5937018
-3.74617	poverty	-0.5913123
-3.871109	power	-0.1653636
-4.34823	powers	-0.2781136
-4.34823	practical	-0.3006597
-4.34823	practice	-0.3009715
-4.34823	practicing	-0.2975685
-4.0472	praise	-0.221264
-3.74617	praised	-0.285523
-4.34823	praiseworthy	-0.3008741
-4.0472	pray	-0.2143039
-4.0472	prayed	-0.1988707
-4.0472	prayer	-0.2130534
-4.34823	precedes	-0.2975685
-4.34823	predecessor	-0.2781136
-4.34823	predicted	-0.2935842
-4.34823	preferred	-0.3008157
-4.34823	pregnancy	-0.2903422
-4.34823	prepaid	-0.3010105
-4.34823	preparation	-0.288261
-4.34823	prepare	-0.288261
-3.64926	prepared	-0.4648535
-3.74617	preparing	-0.1227597
-3.871109	presence	-0.4067125
-3.393988	present	-0.3498092
-4.34823	presentation	-0.2875383
-4.34823	presented	-0.2781136
-4.34823	presents	-0.2935842
-4.34823	preservation	-0.2781136
-3.503132	president	-0.6989747
-4.34823	pressed	-0.2759934
-3.871109	pressure	-0.1615333
-4.34823	pretended	-0.2897429
-4.0472	pretends	-0.5770234
-4.34823	prevailed	-0.288261
-3.871109	prevent	-0.1736104
-4.0472	previous	-0.2217903
-4.34823	previously	-0.2781136
-3.503132	price	-1.448906
-3.64926	prices	-0.7395546
-4.34823	prime	-0.3009326
-4.34823	princes	-0.3010105
-3.871109	principle	-0.411894
-3.871109	principles	-0.1371966
-4.0472	prisoners	-0.221264
-4.0472	prisons	-0.1988502
-3.503132	private	-0.09653975
-4.34823	privileges	-0.2875383
-4.34823	prize	-0.2926717
-4.34823	prizes	-0.2903422
-3.503132	problem	-0.3138849
-3.570079	problems	-0.1932245
-4.34823	process	-0.3010105
-4.34823	produce	-0.3010105
-4.34823	produces	-0.2926717
-4.0472	production	-0.2052719
-4.34823	products	-0.2988625
-4.0472	profession	-0.5791436
-4.34823	professional	-0.2999573
-4.34823	professor	-0.2926717
-4.34823	profits	-0.2781136
-4.34823	profound	-0.300991
-3.871109	program	-0.1401689
-4.34823	progress	-0.2926717
-3.74617	project	-0.1092737
-4.34823	prolonged	-0.3009715
-4.34823	promise	-0.2978237
-4.0472	prosecutor	-0.2217319
-4.34823	prospers	-0.2781136
-4.34823	prostrations	-0.2980395
-4.0472	protect	-0.5988538
-4.34823	protesting	-0.2759934
-4.0472	proud	-0.5885683
-4.34823	proven	-0.2781136
-3.570079	provide	-0.2030232
-4.34823	providing	-0.2998011
-4.34823	psychological	-0.300991
-4.34823	psychologist	-0.300133
-4.34823	psychology	-0.300991
-3.871109	public	-0.1652837
-4.34823	publications	-0.2903422
-4.34823	publicity^	-0.2781136
-3.64926	published	-0.09955125
-4.34823	publishing	-0.288261
-4.34823	pulled	-0.2935842
-4.34823	punishing	-0.3005233
-4.0472	punishment	-0.2080756
-4.0472	purpose	-0.1846975
-4.34823	pursuing	-0.300952
-4.34823	push	-0.2990386
-4.0472	pushed	-0.2085178
-4.34823	pushing	-0.2990386
-3.117781	put	-0.4447199
-4.34823	puts	-0.298745
-4.0472	putting	-0.2190544
-4.34823	qualifying	-0.2975096
-4.34823	quality	-0.2781136
-4.0472	quantity	-0.1973277
-3.74617	quarter	-0.1214215
-4.34823	quarters	-0.2781136
-3.74617	question	-0.3225013
-4.34823	questioning	-0.300991
-3.871109	questions	-0.1594334
-3.570079	quickly	-0.06530067
-4.34823	quietly	-0.2897429
-4.34823	quit	-0.3008352
-4.34823	rabbits	-0.2994298
-4.34823	race	-0.2897429
-4.34823	races	-0.288261
-4.34823	racial	-0.3010105
-4.34823	radio	-0.2903422
-3.871109	raid	-0.1692395
-4.34823	raided	-0.2759934
-4.34823	raids	-0.298745
-4.34823	railroad	-0.3010105
-4.34823	rain	-0.2963101
-4.34823	rainfall	-0.3006402
-3.64926	raise	-0.4458498
-3.64926	raised	-0.1087462
-4.34823	raising	-0.2996253
-4.0472	rang	-0.1966471
-3.871109	range	-0.8316063
-3.871109	rank	-0.4122359
-4.34823	rare	-0.3009326
-3.871109	rate	-0.4038525
-3.74617	rather	-0.137591
-4.34823	ratio	-0.2781136
-3.570079	reach	-0.1856946
-3.570079	reached	-0.07613216
-4.34823	reaches	-0.3010105
-4.34823	reaction	-0.2781136
-4.34823	reactions	-0.2998792
-3.503132	read	-0.03264029
-3.871109	reading	-0.1640639
-4.34823	reads	-0.3007572
-3.74617	ready	-0.5871595
-3.74617	real	-0.1117897
-4.0472	reality	-0.1972453
-4.34823	realize	-0.2759934
-3.871109	realized	-0.1454056
-3.393988	really	-0.0590077
-4.34823	rear	-0.300991
-3.871109	reason	-0.1380905
-4.34823	reasonable	-0.3010105
-4.34823	reasons	-0.3008936
-4.34823	rebellion	-0.3008352
-4.34823	receded	-0.2903422
-4.34823	receive	-0.2990386
-3.74617	received	-0.08201639
-4.34823	recent	-0.3004842
-4.34823	recently	-0.300991
-4.0472	reception	-0.2203659
-4.34823	reciting	-0.2759934
-4.34823	recognizing	-0.2963101
-4.0472	recorded	-0.2192112
-4.34823	recovery	-0.2988625
-4.0472	red	-0.2218098
-4.34823	redo	-0.2996253
-4.34823	reeling	-0.3009326
-4.34823	referring	-0.2897429
-4.34823	reflect	-0.3010105
-3.871109	reform	-0.1227937
-4.34823	refugees	-0.3006987
-4.0472	refused	-0.5907729
-4.34823	regard	-0.2897429
-4.0472	regarding	-0.5770234
-3.64926	regime	-0.236394
-3.74617	region	-0.2945264
-4.34823	regional	-0.288261
-4.34823	regret	-0.3002892
-3.871109	regular	-0.1651239
-4.34823	regulate	-0.2759934
-4.34823	regulations	-0.2994298
-4.0472	reigned	-0.2074318
-4.34823	reinventing	-0.2759934
-4.0472	reject	-0.1951583
-4.0472	related	-0.2105017
-4.34823	relation	-0.2980395
-4.34823	relations	-0.2781136
-3.570079	relationship	-0.3696309
-4.34823	relationships	-0.2897429
-4.34823	relay	-0.3010105
-4.34823	release	-0.2759934
-4.34823	released	-0.3004257
-4.34823	relies	-0.298745
-3.393988	religion	-0.8550675
-4.34823	religions	-0.2781136
-4.34823	religiosity	-0.3006402
-3.74617	religious	-0.3356168
-4.34823	rely	-0.2996839
-4.34823	remain	-0.2975685
-3.44514	remained	-0.5859281
-4.34823	remarkable	-0.3007572
-4.0472	remember	-0.2181516
-4.0472	remembered	-0.5770234
-4.0472	remembers	-0.1931445
-4.34823	reminds	-0.2999769
-4.34823	remorse	-0.2975096
-4.34823	renew	-0.2975685
-4.34823	renewing	-0.2759934
-4.34823	renovation	-0.3005233
-4.34823	rented	-0.2935842
-4.34823	reopened	-0.2975096
-4.34823	repeated	-0.2781136
-4.34823	repeatedly	-0.3007962
-4.34823	repel	-0.2759934
-3.64926	report	-0.1189963
-4.0472	reports	-0.2090397
-4.34823	represent	-0.3009131
-4.0472	representative	-0.5885683
-4.34823	representatives	-0.300133
-4.34823	represents	-0.2926717
-3.871109	repression	-0.3888175
-4.34823	republic	-0.2978629
-4.34823	reputation	-0.2965463
-4.34823	request	-0.3008741
-4.0472	requested	-0.2083369
-4.34823	requester	-0.3008936
-4.34823	require	-0.3008157
-4.0472	required	-0.1967916
-4.0472	requirements	-0.5885683
-4.34823	requires	-0.3009715
-3.74617	research	-0.1301376
-4.34823	researcher	-0.2759934
-4.34823	residing	-0.2978629
-4.0472	resist	-0.1724971
-4.34823	resisting	-0.2759934
-4.34823	resists	-0.3004647
-4.34823	resolutions	-0.2781136
-4.34823	resort	-0.2897429
-4.34823	resources	-0.2994298
-3.570079	respect	-0.07918983
-4.34823	respond	-0.2897429
-4.0472	responsibility	-0.1876579
-4.34823	responsible	-0.2975096
-3.570079	rest	-0.1964581
-4.0472	restaurant	-0.1870252
-4.34823	restore	-0.3003087
-3.503132	result	-0.9778837
-4.34823	resulted	-0.2988625
-4.34823	resumed	-0.300991
-4.34823	resuming	-0.2986275
-4.34823	retarded	-0.288261
-4.34823	retire	-0.2988625
-3.393988	return	-0.3358246
-3.871109	returned	-0.4140615
-4.34823	returning	-0.2897429
-4.0472	revealed	-0.2066054
-4.34823	revelling	-0.2781136
-4.34823	review	-0.2926717
-4.34823	reviewing	-0.2759934
-4.34823	revival	-0.2875383
-4.34823	revolted	-0.3008352
-4.34823	revolution	-0.3003672
-4.34823	revolutionary	-0.3010105
-4.34823	reward	-0.2990386
-4.34823	rhythm	-0.3009326
-4.0472	rid	-0.2073512
-4.34823	riddle	-0.3005233
-4.34823	riders	-0.2996839
-4.34823	ridicule	-0.2999573
-4.34823	riding	-0.3010105
-4.34823	rifle	-0.3010105
-3.34823	right	-0.2969283
-3.871109	rights	-0.1596358
-4.34823	ringing	-0.3009131
-3.64926	rise	-0.4373736
-3.871109	rising	-0.1506625
-4.34823	river	-0.2994298
-4.34823	riyals	-0.2781136
-4.0472	road	-0.2105017
-3.871109	role	-0.1646442
-4.34823	romantic	-0.300952
-3.393988	room	-0.3366752
-4.34823	roots	-0.3005427
-4.34823	rose	-0.2781136
-4.0472	roses	-0.1876579
-4.0472	round	-0.2070289
-4.0472	rubble	-0.205454
-4.34823	ruin	-0.2781136
-3.871109	rule	-0.4076074
-4.34823	ruler	-0.288261
-4.34823	rulers	-0.3002697
-4.0472	rules	-0.195179
-3.871109	ruling	-0.1759354
-4.34823	rulings	-0.2781136
-4.34823	rushed	-0.3009326
-4.34823	s	-0.2975096
-4.34823	sacred	-0.3005622
-4.34823	sacrificing	-0.2975096
-4.34823	sad	-0.3009715
-4.0472	sadness	-0.2058179
-4.34823	safe	-0.2999573
-4.34823	safer	-0.3004452
-3.871109	safety	-0.1515703
-2.871109	said	-0.7215212
-4.34823	saints	-0.2781136
-4.0472	sake	-0.1846975
-4.0472	sale	-0.2086583
-4.34823	saliva	-0.2963101
-4.0472	saluted	-0.1832736
-3.871109	same	-0.1755065
-4.34823	samples	-0.2993516
-3.503132	sat	-0.07600127
-4.34823	satisfaction	-0.2980395
-4.0472	satisfied	-0.5990695
-4.34823	saves	-0.2759934
-3.64926	saw	-0.2447945
-3.393988	say	-0.6736597
-3.74617	saying	-0.326957
-4.34823	says	-0.2963101
-4.34823	scan	-0.3008352
-4.0472	scandal	-0.2058987
-4.34823	scandals	-0.2999573
-4.0472	scattered	-0.2210494
-3.871109	scene	-0.1560605
-4.34823	scheduled	-0.2975096
-4.34823	schedules	-0.2988625
-4.0472	scholars	-0.1854607
-3.393988	school	-0.1373713
-3.74617	schools	-0.3106524
-4.34823	school…from	-0.3010105
-4.0472	science	-0.2184069
-3.871109	scientific	-0.1758575
-4.34823	scientists	-0.2988625
-4.34823	scold	-0.2986275
-4.34823	scores	-0.2875383
-4.34823	script	-0.2903422
-3.64926	searching	-0.4650538
-4.34823	seas	-0.2781136
-3.871109	season	-0.4022302
-4.34823	seasons	-0.2781136
-4.34823	seat	-0.288261
-4.34823	secluded	-0.3008936
-3.871109	second	-0.1754675
-3.74617	secondary	-0.3126293
-4.0472	secret	-0.2083369
-3.871109	secretary	-0.4223699
-3.871109	sect	-0.1418583
-4.34823	sectarian	-0.2903422
-4.34823	sector	-0.2781136
-4.34823	sectors	-0.2781136
-3.871109	secure	-0.1410989
-3.34823	security	-0.1212772
-3.202102	see	-0.2066368
-4.0472	seek	-0.214066
-3.74617	seemed	-0.3243251
-4.0472	seems	-0.2057168
-3.64926	seen	-0.08484948
-4.0472	sees	-0.2176602
-4.34823	seized	-0.2759934
-4.34823	selection	-0.288261
-4.34823	self	-0.2980395
-4.34823	self-confidence	-0.2903422
-4.34823	self-confident	-0.2781136
-4.34823	self-control	-0.2903422
-4.34823	selfish	-0.288261
-4.0472	sell	-0.2208347
-4.0472	seller	-0.221498
-4.34823	sells	-0.2990973
-4.34823	senior	-0.3008741
-4.34823	sense	-0.2875383
-4.34823	senses	-0.288261
-4.34823	sensitive	-0.3009326
-4.34823	sensitivity	-0.288261
-3.64926	sent	-0.2662253
-4.0472	sentence	-0.208578
-4.34823	separate	-0.288261
-3.74617	separation	-0.1050336
-4.34823	serious	-0.3009715
-4.34823	sermon	-0.2781136
-3.74617	servant	-0.121174
-4.34823	serve	-0.2759934
-4.34823	service	-0.2781136
-4.0472	services	-0.2083369
-3.871109	session	-0.1583391
-4.34823	sessions	-0.288261
-4.0472	set	-0.6014557
-4.34823	sets	-0.288261
-4.34823	setting	-0.3004257
-3.871109	settled	-0.4154806
-4.34823	settlement	-0.2994689
-4.34823	settling	-0.3007377
-3.503132	seven	-0.2003649
-4.34823	seventy-five	-0.3009131
-3.74617	several	-0.3356168
-4.0472	severing	-0.1958826
-4.34823	sexual	-0.3009131
-4.34823	shadow	-0.2875383
-4.34823	shaking	-0.2980395
-4.0472	shall	-0.2201312
-4.34823	shameful	-0.2781136
-4.34823	shape	-0.2875383
-4.34823	shared	-0.3010105
-4.0472	shares	-0.1989118
-4.34823	sharp	-0.300952
-4.34823	sharply	-0.288261
-2.584802	she	-0.4002948
-4.34823	sheet	-0.2989408
-4.34823	shelters	-0.2998792
-4.34823	shifts	-0.2781136
-4.34823	shines	-0.2935842
-4.34823	ship	-0.2978629
-3.871109	ships	-0.4114712
-3.871109	shirt	-0.1531338
-4.34823	shocked	-0.2759934
-4.34823	shoe	-0.3006402
-4.34823	shoemaker	-0.288261
-4.0472	shoes	-0.2082164
-4.0472	shop	-0.2188387
-3.871109	shops	-0.1419004
-3.74617	short	-0.3228426
-4.34823	shortcoming	-0.2781136
-4.34823	shortest	-0.3010105
-3.871109	shot	-0.1663209
-3.503132	should	-0.1976326
-4.34823	shoulder	-0.3010105
-3.871109	shower	-0.1522498
-4.0472	shut	-0.1965026
-4.34823	shy	-0.300991
-4.34823	sick	-0.3002892
-4.34823	side	-0.2875383
-3.74617	sides	-0.3182023
-4.34823	sidewalk	-0.2781136
-4.34823	sift	-0.3008352
-4.0472	sign	-0.1846975
-4.34823	signature	-0.2875383
-4.0472	signed	-0.2143237
-4.34823	significant	-0.2781136
-4.34823	signing	-0.2875383
-3.871109	signs	-0.4038525
-3.74617	silence	-0.322963
-3.44514	silent	-0.4181483
-4.34823	silk	-0.3009715
-4.34823	silver	-0.3010105
-4.34823	similar	-0.300991
-3.871109	simple	-0.1529695
-4.34823	simply	-0.3008352
-4.34823	simultaneously	-0.288261
-2.933257	since	-0.3721997
-3.393988	single	-0.06587034
-4.34823	sins	-0.3007767
-4.34823	sip	-0.300952
-4.0472	sir	-0.2190544
-4.34823	sir…	-0.3002501
-3.871109	sister	-0.1526201
-4.34823	sisters	-0.288261
-3.74617	sit	-0.1298748
-4.0472	site	-0.2167152
-4.34823	sits	-0.298745
-3.871109	sitting	-0.1674748
-3.34823	situation	-0.2909881
-3.64926	six	-0.1010356
-3.871109	sixty	-0.4123163
-4.34823	size	-0.2903422
-4.0472	skin	-0.2111011
-4.34823	skirt	-0.2903422
-4.34823	sky	-0.288261
-4.34823	slaughtered	-0.2759934
-4.34823	slave	-0.288261
-3.306838	sleep	-0.273459
-3.871109	sleeping	-0.1443381
-4.34823	sleep…	-0.2958373
-3.570079	slept	-0.3929444
-4.34823	slept…	-0.2958373
-4.34823	slightest	-0.3010105
-4.34823	slightly	-0.3009326
-4.34823	slogans	-0.2994298
-4.34823	slots	-0.3007767
-4.34823	slowing	-0.2897429
-3.570079	slowly	-0.09373971
-3.570079	small	-0.08509722
-4.0472	smart	-0.2109813
-4.34823	smell	-0.3008352
-4.0472	smile	-0.2214395
-4.34823	smiled	-0.288261
-4.34823	smiling	-0.2903422
-4.34823	smoke	-0.3010105
-4.34823	smokers	-0.288261
-4.34823	smokes	-0.2903422
-4.0472	smoking	-0.221342
-4.34823	smugglers	-0.2897429
-4.34823	snore	-0.3010105
-4.34823	snow	-0.298745
-2.856869	so	-0.5569003
-3.871109	soccer	-0.1676536
-4.34823	soccer”	-0.2903422
-3.64926	social	-0.1139514
-4.34823	societies	-0.2781136
-3.503132	society	-0.6852962
-4.34823	soldier	-0.3010105
-3.34823	soldiers	-0.3095017
-4.34823	sole	-0.300991
-3.64926	solution	-0.2247948
-3.871109	solve	-0.1493801
-4.34823	solved	-0.3003087
-3.092958	some	-0.2310819
-3.503132	someone	-0.1968516
-3.570079	something	-0.2309803
-4.34823	somewhat	-0.2989408
-3.503132	son	-0.3081265
-3.871109	songs	-0.1379629
-4.34823	soon	-0.2781136
-3.871109	sorry	-0.1511579
-3.64926	soul	-0.08012421
-3.64926	sound	-0.449809
-4.34823	sounds	-0.3008352
-4.34823	source	-0.300952
-3.871109	sources	-0.1576487
-3.871109	south	-0.8316063
-4.34823	span	-0.2875383
-3.393988	speak	-0.1377265
-4.0472	speaking	-0.1988091
-3.871109	special	-0.1759159
-4.0472	specialist	-0.2058179
-4.34823	specialize	-0.2926717
-4.34823	specialties	-0.3008936
-3.871109	specific	-0.1760133
-4.0472	specifically	-0.2161432
-4.34823	specified	-0.3009326
-4.34823	speech	-0.2980395
-4.34823	speeding	-0.3010105
-4.34823	spend	-0.2759934
-3.570079	spent	-0.2095739
-4.34823	spilled	-0.3002306
-4.34823	spirit	-0.2875383
-4.0472	splendid	-0.6019626
-4.34823	spoil	-0.2994689
-3.74617	spoke	-0.3197613
-4.34823	spokesman	-0.2975096
-3.64926	sports	-0.2556523
-4.34823	spot	-0.2926717
-4.34823	spotted	-0.2980395
-4.0472	spread	-0.2209908
-4.34823	spreading	-0.3008352
-4.0472	spy	-0.2194854
-4.34823	spying	-0.2781136
-4.34823	square	-0.3010105
-4.34823	stability	-0.2875383
-4.34823	stable	-0.3005622
-4.34823	stack	-0.2875383
-4.0472	stadium	-0.2074519
-4.0472	staff	-0.2047251
-3.871109	stage	-0.8316063
-4.34823	stages	-0.2875383
-4.34823	staid	-0.300952
-4.34823	stained	-0.2988625
-3.871109	stairs	-0.4258129
-4.34823	stance	-0.288261
-3.871109	stand	-0.175604
-4.34823	standards…	-0.3003477
-3.871109	standing	-0.1514672
-4.34823	standpoint	-0.3002501
-4.34823	stands	-0.3008352
-4.34823	stared	-0.3005233
-4.0472	staring	-0.6007139
-3.117781	started	-0.6149605
-4.34823	starve	-0.3002306
-3.44514	state	-0.5648026
-4.0472	stated	-0.5973402
-4.0472	statement	-0.2042183
-3.871109	statements	-0.1686058
-3.64926	states	-0.2271484
-4.0472	station	-0.2068474
-4.34823	stations	-0.2903422
-4.34823	station…	-0.2997816
-4.34823	statistical	-0.3010105
-4.34823	statistics	-0.2897429
-3.74617	stay	-0.1374718
-3.64926	stayed	-0.1105419
-4.0472	staying	-0.1901166
-4.34823	steady	-0.3010105
-4.34823	steal	-0.2988625
-4.0472	steals	-0.1724971
-4.0472	step	-0.2168531
-3.871109	steps	-0.1635028
-4.34823	stick	-0.2998792
-3.269049	still	-0.05150009
-4.34823	stingy	-0.2903422
-4.34823	stock	-0.3010105
-4.34823	stocks	-0.2926717
-3.44514	stood	-0.5909328
-3.74617	stop	-0.1403435
-4.34823	stopped	-0.2759934
-4.34823	store	-0.2897429
-4.34823	stories	-0.2999378
-3.570079	story	-0.09456638
-4.34823	strange	-0.2897429
-4.0472	stranger	-0.5892911
-4.34823	strategic	-0.300952
-4.0472	strategy	-0.2185247
-4.34823	streaming	-0.2926717
-3.64926	street	-0.1111656
-3.570079	streets	-0.3478457
-4.0472	strength	-0.1846975
-4.34823	strengthening	-0.3010105
-4.0472	stressed	-0.1918106
-4.34823	stressing	-0.2963101
-4.0472	stretched	-0.6012607
-4.34823	strictly	-0.288261
-4.34823	strives	-0.3010105
-3.74617	strong	-0.1459527
-4.34823	strongly	-0.2903422
-3.871109	struck	-0.422841
-3.393988	student	-0.02236803
-3.503132	students	-0.1721721
-3.871109	studied	-0.1412466
-3.64926	studies	-0.2294456
-3.234287	study	-0.1277576
-4.0472	studying	-0.1987064
-4.0472	stupid	-0.220053
-3.871109	style	-0.1537699
-3.64926	subject	-0.1022687
-4.0472	submitted	-0.2131528
-4.34823	submitting	-0.2935842
